svm_type c_svc
kernel_type rbf
gamma 0.001
nr_class 3
total_sv 995
rho -0.18497475517009188 0.04955303729668811 0.22034295230821285
label 3 1 2
nr_sv 344 289 362
SV
0.8146619864722087 1.0 26:473.0 102:250.0 167:620.0 
0.8147011062159081 1.0 66:123.0 206:26.0 403:75.0 789:105.0 880:132.0 907:88.0 
0.8147011062159379 1.0 26:423.0 31:639.0 102:223.0 317:533.0 631:335.0 
0.0 0.049804684127423116 17:78.0 20:50.0 27:107.0 28:120.0 34:96.0 59:340.0 66:159.0 94:110.0 98:96.0 104:88.0 107:116.0 108:116.0 112:78.0 119:240.0 126:165.0 129:93.0 133:114.0 138:301.0 140:53.0 148:97.0 153:113.0 164:49.0 173:63.0 192:115.0 198:108.0 205:63.0 206:100.0 209:38.0 271:85.0 309:113.0 329:63.0 347:67.0 410:206.0 423:43.0 430:64.0 439:108.0 473:71.0 545:101.0 625:76.0 728:106.0 737:86.0 767:234.0 772:95.0 865:64.0 880:85.0 890:99.0 917:76.0 
0.8147309053319681 1.0 13:282.0 18:259.0 63:1851.0 203:1365.0 206:539.0 209:203.0 226:630.0 479:488.0 567:733.0 
0.814739865354346 1.0 74:573.0 129:399.0 209:162.0 345:502.0 448:591.0 927:697.0 
0.814770104389853 1.0 3:71.0 4:32.0 13:28.0 20:27.0 23:12.0 25:28.0 33:53.0 35:17.0 36:27.0 38:19.0 61:21.0 80:46.0 88:20.0 96:21.0 99:16.0 112:21.0 118:39.0 126:45.0 128:31.0 134:36.0 167:15.0 185:25.0 188:29.0 206:155.0 207:16.0 209:134.0 215:37.0 257:44.0 260:46.0 265:31.0 270:14.0 282:30.0 289:29.0 290:66.0 293:29.0 311:48.0 329:325.0 340:40.0 348:14.0 384:36.0 403:26.0 410:44.0 423:153.0 425:23.0 430:17.0 448:112.0 534:49.0 536:62.0 544:50.0 551:26.0 562:36.0 580:40.0 627:24.0 662:34.0 725:27.0 732:24.0 758:26.0 768:62.0 779:39.0 781:158.0 865:34.0 884:74.0 891:20.0 893:69.0 919:26.0 
0.814770104389853 1.0 346:1641.0 545:1393.0 882:464.0 
0.8149269945669924 1.0 23:813.0 26:766.0 80:733.0 102:404.0 140:907.0 410:705.0 768:2953.0 
0.8149269945669924 1.0 4:99.0 11:142.0 23:116.0 102:116.0 105:125.0 140:130.0 207:145.0 209:93.0 306:248.0 332:261.0 425:211.0 435:640.0 568:188.0 631:524.0 647:135.0 719:275.0 860:221.0 
0.8149269945669924 1.0 102:435.0 119:552.0 297:1462.0 767:718.0 863:994.0 880:785.0 
0.8149269945669924 1.0 5:158.0 26:216.0 28:144.0 52:293.0 74:161.0 102:114.0 129:112.0 206:80.0 209:91.0 395:154.0 516:525.0 568:555.0 
1.0 1.0 5:23.0 6:23.0 16:21.0 22:23.0 35:45.0 38:25.0 67:34.0 74:24.0 86:61.0 90:25.0 99:44.0 102:33.0 119:64.0 130:73.0 132:40.0 135:34.0 166:23.0 205:22.0 207:21.0 221:143.0 243:295.0 246:31.0 257:58.0 289:39.0 293:39.0 305:41.0 387:90.0 388:45.0 389:34.0 396:37.0 410:103.0 413:52.0 423:15.0 444:49.0 448:49.0 480:58.0 483:34.0 519:31.0 567:49.0 568:55.0 570:42.0 608:40.0 628:116.0 629:39.0 647:19.0 655:58.0 724:47.0 744:34.0 749:36.0 792:165.0 861:45.0 863:38.0 867:38.0 880:30.0 897:43.0 927:29.0 
0.8149269945669924 1.0 23:74.0 118:113.0 189:132.0 346:185.0 348:81.0 470:178.0 750:133.0 882:157.0 
0.8149269945669924 1.0 209:225.0 270:153.0 534:715.0 789:604.0 
0.8149269945669924 1.0 52:420.0 102:163.0 147:373.0 550:355.0 920:491.0 
0.8149269945669924 1.0 23:161.0 99:209.0 104:149.0 118:246.0 164:167.0 424:337.0 435:440.0 552:369.0 568:260.0 748:294.0 
0.8149411049960753 1.0 243:335.0 525:574.0 568:281.0 
0.8149411049960753 1.0 129:381.0 280:731.0 383:1268.0 
0.8149411049960753 1.0 404:177.0 453:178.0 
0.8149411049960753 1.0 13:172.0 90:236.0 264:279.0 271:278.0 423:141.0 
0.8149437934382602 1.0 40:626.0 61:111.0 90:103.0 102:67.0 105:145.0 568:109.0 646:293.0 772:269.0 
0.8149437934382602 1.0 867:537.0 
0.8150536913579164 1.0 10:908.0 129:1398.0 424:993.0 
0.8150536913579164 1.0 2:39.0 4:25.0 6:42.0 13:67.0 16:117.0 38:45.0 40:70.0 48:83.0 56:55.0 129:149.0 166:42.0 186:43.0 190:45.0 206:107.0 223:50.0 270:65.0 334:51.0 345:75.0 383:298.0 423:27.0 424:127.0 547:93.0 628:207.0 655:104.0 760:52.0 865:41.0 905:148.0 907:72.0 908:148.0 
0.8150976301002429 1.0 105:38.0 645:63.0 767:117.0 880:64.0 
0.8152219224253805 1.0 26:785.0 102:414.0 
0.8151644445955817 1.0 22:65.0 23:47.0 38:35.0 59:33.0 93:47.0 99:154.0 102:23.0 105:51.0 119:29.0 126:27.0 128:58.0 138:90.0 139:158.0 209:18.0 260:28.0 261:48.0 289:27.0 348:104.0 382:195.0 398:60.0 403:96.0 410:20.0 425:43.0 439:53.0 481:60.0 520:52.0 545:50.0 550:257.0 625:37.0 645:41.0 647:54.0 719:55.0 725:49.0 737:43.0 739:55.0 742:66.0 748:86.0 751:51.0 771:203.0 772:47.0 812:82.0 937:153.0 968:76.0 
0.8151644445955817 1.0 1:86.0 18:73.0 22:33.0 43:31.0 48:33.0 50:42.0 74:34.0 90:73.0 96:79.0 112:39.0 127:55.0 128:178.0 138:30.0 147:54.0 190:72.0 207:29.0 260:87.0 270:26.0 307:209.0 309:172.0 379:164.0 383:78.0 421:46.0 448:35.0 563:42.0 605:59.0 748:44.0 750:43.0 760:167.0 778:74.0 789:68.0 917:77.0 
0.8151644445955817 1.0 52:716.0 102:278.0 453:1202.0 
0.6965081181607335 1.0 26:656.0 102:346.0 
0.8151644445955817 1.0 126:110.0 137:710.0 206:67.0 423:174.0 
0.8151644446605997 1.0 22:873.0 26:596.0 52:809.0 102:314.0 642:557.0 748:1156.0 
0.8151644446605997 1.0 10:617.0 102:320.0 129:1266.0 424:674.0 
0.8151644446605997 1.0 11:49.0 23:20.0 49:37.0 74:28.0 86:24.0 93:40.0 96:33.0 104:150.0 111:42.0 112:33.0 122:82.0 130:44.0 134:690.0 140:22.0 186:116.0 188:68.0 205:54.0 271:36.0 283:175.0 286:52.0 329:26.0 348:67.0 398:51.0 410:123.0 430:27.0 522:39.0 525:67.0 562:28.0 576:57.0 603:39.0 604:46.0 634:49.0 640:56.0 652:117.0 655:35.0 720:36.0 726:100.0 738:50.0 750:36.0 782:470.0 891:65.0 921:60.0 
0.8151644446605997 1.0 11:81.0 40:3224.0 105:71.0 188:149.0 190:198.0 204:164.0 206:46.0 207:247.0 217:128.0 219:174.0 348:72.0 424:139.0 449:179.0 481:169.0 536:160.0 568:214.0 625:106.0 758:134.0 782:127.0 
0.8151851994029482 1.0 12:229.0 20:144.0 21:749.0 47:225.0 97:351.0 190:408.0 287:393.0 383:223.0 522:265.0 562:577.0 825:474.0 
0.8151851994029482 1.0 5:106.0 20:163.0 50:137.0 106:111.0 132:181.0 142:211.0 170:197.0 190:115.0 209:184.0 264:278.0 270:83.0 346:386.0 404:219.0 534:293.0 953:181.0 
0.8151851994029482 1.0 61:135.0 88:133.0 102:82.0 104:76.0 111:172.0 410:143.0 647:286.0 927:141.0 
0.8151851994029482 1.0 4:34.0 105:43.0 140:89.0 164:83.0 190:60.0 246:74.0 283:86.0 289:46.0 425:364.0 427:67.0 435:220.0 453:57.0 568:65.0 594:134.0 608:95.0 720:72.0 931:130.0 938:390.0 944:246.0 
0.8152199463747596 1.0 55:231.0 97:218.0 100:334.0 102:42.0 137:189.0 395:517.0 730:88.0 
0.8152595998566798 1.0 105:35.0 227:30.0 245:39.0 398:138.0 430:103.0 453:187.0 525:89.0 767:179.0 824:35.0 
0.8149632562532063 1.0 18:91.0 123:218.0 167:110.0 206:63.0 283:577.0 404:254.0 627:172.0 782:172.0 789:510.0 
0.8153755311514663 1.0 869:75.0 929:39.0 
0.8149747868576528 1.0 2:42.0 4:27.0 9:232.0 18:131.0 20:102.0 23:129.0 38:48.0 61:53.0 67:132.0 72:128.0 105:34.0 119:81.0 122:65.0 128:39.0 140:36.0 164:100.0 186:46.0 188:72.0 225:65.0 246:119.0 260:39.0 281:62.0 290:55.0 314:66.0 317:76.0 345:79.0 404:92.0 410:140.0 429:49.0 472:88.0 542:88.0 756:189.0 885:56.0 927:55.0 
0.8149771859101347 1.0 28:37.0 70:56.0 90:90.0 98:59.0 121:60.0 128:36.0 135:121.0 164:91.0 184:77.0 185:57.0 190:44.0 219:77.0 222:60.0 225:60.0 270:32.0 287:85.0 289:34.0 298:90.0 312:50.0 343:92.0 398:74.0 403:60.0 410:230.0 473:88.0 535:72.0 568:143.0 576:83.0 719:69.0 742:164.0 748:54.0 751:320.0 816:102.0 878:67.0 
0.8149857705949698 1.0 13:176.0 35:107.0 158:577.0 203:141.0 206:111.0 289:91.0 632:1539.0 865:107.0 907:190.0 
0.8149857705949698 1.0 11:32.0 13:59.0 16:17.0 32:19.0 74:37.0 99:17.0 132:62.0 207:16.0 224:66.0 243:51.0 246:49.0 264:48.0 271:71.0 305:64.0 334:45.0 386:35.0 410:23.0 423:48.0 427:22.0 433:30.0 481:34.0 521:73.0 570:33.0 594:44.0 628:30.0 744:26.0 758:54.0 775:40.0 789:38.0 863:333.0 938:43.0 954:31.0 
0.8150076325433138 1.0 4:96.0 18:116.0 20:120.0 43:149.0 87:265.0 112:186.0 129:111.0 190:510.0 632:200.0 636:241.0 725:238.0 881:211.0 885:198.0 967:368.0 
0.8150766112232287 1.0 105:422.0 140:328.0 206:830.0 209:78.0 283:211.0 404:279.0 882:208.0 891:157.0 
0.8150766112232287 1.0 1:116.0 3:89.0 13:108.0 40:901.0 93:386.0 283:210.0 562:137.0 772:194.0 782:187.0 828:2130.0 
0.8150758430365309 1.0 23:82.0 102:82.0 105:89.0 115:182.0 137:123.0 173:110.0 249:248.0 250:248.0 285:158.0 289:95.0 291:169.0 348:182.0 384:116.0 435:226.0 604:188.0 645:146.0 732:159.0 817:575.0 873:230.0 
0.815075843036531 1.0 15:1554.0 68:1798.0 305:5168.0 
0.6957146210181419 0.9123717123360257 26:619.0 102:326.0 
0.8151459137250341 1.0 49:650.0 102:175.0 104:489.0 145:287.0 297:588.0 547:539.0 
0.8152931082369271 1.0 126:68.0 137:1412.0 257:68.0 647:68.0 
0.8151459137250341 1.0 102:346.0 206:245.0 
0.8144561525726948 1.0 16:117.0 20:96.0 43:119.0 104:84.0 105:97.0 129:89.0 137:135.0 206:64.0 208:224.0 209:72.0 257:104.0 289:104.0 395:122.0 396:201.0 404:129.0 421:346.0 423:165.0 453:130.0 528:252.0 626:167.0 891:291.0 954:215.0 
0.8153374045204587 1.0 52:740.0 74:408.0 102:288.0 128:356.0 
0.8152296531344237 1.0 190:95.0 206:90.0 789:164.0 907:30.0 
1.0 0.04980468650224197 12:80.0 17:78.0 20:50.0 27:107.0 28:120.0 34:96.0 59:340.0 66:159.0 94:110.0 98:96.0 104:88.0 107:116.0 108:116.0 112:78.0 119:240.0 126:165.0 129:140.0 133:114.0 138:301.0 140:53.0 148:97.0 153:113.0 154:113.0 156:125.0 164:49.0 173:63.0 192:115.0 205:63.0 206:100.0 209:38.0 271:85.0 308:128.0 309:113.0 329:63.0 347:67.0 410:206.0 423:43.0 430:64.0 439:108.0 473:71.0 545:101.0 625:76.0 728:106.0 737:86.0 767:234.0 772:95.0 865:64.0 880:85.0 890:99.0 917:76.0 
0.8150976299976526 1.0 93:131.0 127:152.0 138:83.0 348:72.0 407:198.0 424:138.0 475:167.0 481:169.0 520:146.0 535:161.0 550:574.0 645:233.0 863:150.0 886:187.0 
0.8146496598175454 1.0 47:284.0 97:1330.0 102:171.0 190:515.0 207:214.0 270:187.0 789:492.0 825:598.0 903:343.0 
0.8144460249155538 1.0 23:55.0 30:99.0 40:510.0 105:59.0 145:90.0 185:106.0 328:123.0 348:60.0 355:135.0 383:90.0 384:77.0 410:47.0 423:100.0 424:115.0 452:125.0 453:79.0 604:125.0 646:239.0 720:100.0 726:136.0 750:99.0 751:119.0 758:112.0 782:319.0 828:3419.0 867:123.0 881:102.0 
0.8150904553876899 1.0 13:118.0 129:157.0 206:641.0 288:110.0 346:267.0 481:136.0 576:151.0 628:121.0 632:377.0 645:188.0 882:113.0 
0.8147011062159379 1.0 74:963.0 129:447.0 927:1172.0 
0.8152324711958028 1.0 1:35.0 13:32.0 23:29.0 31:42.0 86:35.0 102:29.0 121:122.0 134:252.0 164:30.0 184:78.0 186:128.0 280:56.0 281:57.0 286:77.0 291:60.0 307:129.0 329:197.0 343:93.0 383:48.0 384:167.0 410:77.0 553:67.0 562:41.0 563:105.0 568:48.0 604:67.0 631:44.0 646:64.0 655:51.0 660:81.0 748:54.0 
0.8153374045205541 1.0 16:455.0 17:193.0 289:135.0 334:201.0 395:318.0 927:202.0 
0.8152931227180296 1.0 70:215.0 99:146.0 138:142.0 140:125.0 188:126.0 209:89.0 348:123.0 560:269.0 750:201.0 
0.8151851994029482 1.0 50:101.0 76:127.0 91:100.0 105:554.0 140:127.0 144:140.0 203:102.0 206:80.0 209:45.0 246:211.0 264:103.0 348:62.0 380:141.0 384:80.0 404:570.0 430:77.0 563:101.0 629:133.0 647:66.0 655:197.0 789:81.0 890:239.0 892:150.0 
0.8151644446605997 1.0 13:630.0 129:186.0 289:218.0 346:474.0 534:1203.0 882:402.0 
0.8145395035687761 1.0 292:971.0 405:1315.0 
0.8146496598169252 1.0 13:81.0 55:269.0 97:285.0 100:436.0 137:220.0 395:599.0 423:67.0 
0.8146496598175337 1.0 4:76.0 102:89.0 105:96.0 164:186.0 190:134.0 425:651.0 427:151.0 435:492.0 568:145.0 720:162.0 931:290.0 938:290.0 944:275.0 
0.8148124641623229 1.0 55:327.0 97:231.0 100:353.0 102:89.0 137:267.0 395:729.0 440:435.0 626:1992.0 
0.8152827562358475 1.0 18:644.0 26:596.0 102:314.0 209:504.0 533:1599.0 
0.8148447300444845 1.0 23:118.0 28:149.0 128:146.0 229:329.0 311:222.0 332:265.0 631:177.0 748:216.0 882:251.0 
0.8146992431247781 1.0 74:1024.0 119:458.0 221:765.0 243:699.0 317:862.0 345:898.0 431:1906.0 449:979.0 655:626.0 
0.8144808383433708 1.0 553:123.0 720:98.0 735:512.0 815:566.0 823:188.0 873:151.0 936:879.0 
0.8144808382874635 1.0 137:857.0 395:259.0 626:708.0 
0.8144561525726948 1.0 23:237.0 118:362.0 190:1062.0 280:894.0 917:381.0 
0.8144561525726948 1.0 11:72.0 40:549.0 105:191.0 115:130.0 129:58.0 206:41.0 207:295.0 348:130.0 383:389.0 423:162.0 425:107.0 453:85.0 519:111.0 553:135.0 767:292.0 789:169.0 891:95.0 924:154.0 
0.8144561525726948 1.0 52:513.0 102:200.0 173:267.0 432:496.0 453:287.0 629:468.0 927:344.0 
0.8152305540089131 1.0 14:48.0 35:93.0 49:170.0 73:256.0 126:26.0 190:69.0 423:42.0 645:81.0 658:66.0 789:131.0 
0.8152305540089131 1.0 4:21.0 10:24.0 11:46.0 12:21.0 13:71.0 18:39.0 23:12.0 28:32.0 31:72.0 48:35.0 50:22.0 82:26.0 86:15.0 99:33.0 104:11.0 105:41.0 106:18.0 126:29.0 129:441.0 132:60.0 140:42.0 164:13.0 190:19.0 206:90.0 207:63.0 222:78.0 224:63.0 226:31.0 243:49.0 261:26.0 264:46.0 270:13.0 280:24.0 289:14.0 334:21.0 348:42.0 404:36.0 410:11.0 423:93.0 432:190.0 445:37.0 480:22.0 525:63.0 534:48.0 539:34.0 545:27.0 550:27.0 607:31.0 629:29.0 632:22.0 636:27.0 645:22.0 646:27.0 725:26.0 739:30.0 741:36.0 758:51.0 767:105.0 865:52.0 885:22.0 891:20.0 
0.8151925168922659 1.0 17:78.0 20:50.0 27:107.0 28:120.0 34:96.0 59:340.0 66:159.0 94:110.0 98:96.0 104:88.0 107:116.0 108:116.0 112:78.0 119:240.0 126:165.0 129:93.0 133:114.0 138:301.0 140:53.0 148:97.0 153:113.0 164:49.0 173:63.0 192:115.0 198:108.0 205:63.0 206:100.0 209:38.0 271:85.0 309:113.0 329:63.0 347:67.0 410:206.0 423:43.0 430:64.0 439:108.0 473:71.0 545:101.0 625:76.0 728:106.0 737:86.0 767:234.0 772:95.0 865:64.0 880:85.0 890:99.0 917:76.0 
0.8152928463874174 1.0 22:736.0 52:682.0 102:265.0 452:606.0 
0.8147011077641393 1.0 23:45.0 126:26.0 403:46.0 596:76.0 626:84.0 647:53.0 
0.8152874117986018 1.0 26:881.0 35:315.0 102:232.0 264:1265.0 
0.8144460249155538 1.0 55:370.0 137:302.0 395:824.0 440:984.0 626:2253.0 
0.8152316912082017 1.0 209:320.0 534:509.0 
0.8152296974516249 1.0 253:948.0 283:622.0 289:333.0 346:1447.0 882:614.0 
0.8152296961869087 1.0 137:397.0 167:329.0 347:377.0 386:709.0 395:360.0 431:700.0 632:470.0 974:862.0 
0.8152296961869087 1.0 102:395.0 297:1326.0 383:1947.0 
0.8152931218748853 1.0 1:149.0 2:328.0 4:70.0 18:84.0 72:82.0 86:50.0 99:54.0 112:68.0 164:129.0 166:115.0 171:104.0 195:195.0 205:55.0 257:47.0 269:218.0 270:45.0 289:95.0 290:71.0 410:36.0 429:64.0 446:134.0 657:322.0 760:144.0 770:109.0 880:74.0 
0.8152931213076245 1.0 1:20.0 2:22.0 6:24.0 8:26.0 9:62.0 22:48.0 23:17.0 28:22.0 75:39.0 76:38.0 86:42.0 87:81.0 102:17.0 104:97.0 105:18.0 106:25.0 112:28.0 113:47.0 119:22.0 145:57.0 166:24.0 186:125.0 206:73.0 209:55.0 271:31.0 288:36.0 289:40.0 290:59.0 330:50.0 334:29.0 345:43.0 384:24.0 392:48.0 404:248.0 410:60.0 431:45.0 473:26.0 483:70.0 534:44.0 540:46.0 566:30.0 568:28.0 570:43.0 583:54.0 604:39.0 632:184.0 637:38.0 647:60.0 655:90.0 719:41.0 758:35.0 789:24.0 866:50.0 868:40.0 893:47.0 897:44.0 
0.7999271757403196 1.0 137:577.0 243:2241.0 246:716.0 632:683.0 881:720.0 885:677.0 
0.8150758430365309 1.0 6:81.0 16:50.0 21:35.0 22:26.0 23:38.0 43:25.0 47:32.0 60:34.0 66:32.0 70:37.0 71:35.0 74:27.0 80:35.0 91:34.0 97:25.0 102:38.0 104:54.0 117:97.0 140:65.0 145:31.0 152:46.0 158:47.0 187:41.0 253:85.0 264:35.0 289:22.0 290:33.0 311:36.0 383:95.0 388:52.0 404:55.0 425:35.0 453:27.0 470:46.0 534:24.0 595:65.0 626:36.0 646:84.0 655:33.0 661:58.0 760:67.0 764:58.0 767:31.0 789:83.0 865:79.0 882:41.0 897:49.0 917:62.0 930:63.0 937:63.0 
0.8150758430365309 1.0 137:794.0 243:1027.0 246:492.0 632:470.0 881:495.0 885:932.0 
0.8151459137250341 1.0 560:682.0 631:425.0 655:490.0 
0.8151655991234075 1.0 13:946.0 102:425.0 105:459.0 129:419.0 
0.8151666502055429 1.0 5:31.0 18:23.0 22:254.0 33:47.0 35:31.0 54:47.0 86:83.0 102:22.0 104:21.0 105:619.0 119:29.0 140:25.0 147:52.0 166:128.0 189:40.0 257:26.0 287:66.0 289:53.0 384:32.0 404:65.0 410:19.0 483:46.0 551:47.0 552:52.0 570:56.0 589:74.0 647:26.0 654:43.0 655:158.0 719:54.0 732:44.0 749:97.0 760:79.0 865:31.0 868:105.0 885:40.0 891:36.0 
0.8151925167646504 1.0 1:283.0 4:200.0 26:894.0 102:236.0 167:585.0 218:421.0 284:303.0 334:405.0 636:503.0 903:472.0 
0.49128807289380405 0.6318299192237256 26:545.0 102:288.0 
0.8152324711950784 1.0 4:36.0 18:44.0 22:60.0 23:43.0 43:57.0 91:229.0 99:56.0 111:182.0 119:54.0 128:53.0 135:89.0 152:208.0 164:180.0 187:91.0 190:195.0 285:83.0 289:50.0 305:738.0 408:130.0 538:115.0 550:94.0 568:70.0 608:103.0 860:82.0 
0.815232471181151 1.0 3:93.0 11:123.0 40:234.0 47:167.0 61:166.0 74:286.0 105:109.0 206:214.0 207:126.0 348:223.0 423:92.0 430:276.0 562:143.0 563:180.0 644:473.0 720:184.0 750:182.0 891:326.0 
0.8152324711687519 1.0 38:356.0 69:599.0 395:641.0 573:622.0 
0.8149673364135556 1.0 13:430.0 102:193.0 129:190.0 264:349.0 346:1455.0 
0.0 0.05017790936733574 55:327.0 97:462.0 100:707.0 137:267.0 395:729.0 626:1992.0 
0.8149771859098082 1.0 22:673.0 52:624.0 102:242.0 105:787.0 
0.8149857705949697 1.0 30:547.0 102:151.0 129:149.0 865:206.0 903:303.0 
0.8150766112232287 1.0 126:165.0 137:847.0 
0.8144881837072557 1.0 448:273.0 894:540.0 908:459.0 925:480.0 
0.8144881837072557 1.0 13:1455.0 264:296.0 397:382.0 534:624.0 744:330.0 
0.8145395034895015 1.0 13:245.0 16:285.0 81:531.0 97:285.0 112:363.0 243:426.0 283:477.0 867:495.0 
0.8146496598175454 1.0 166:122.0 203:316.0 206:499.0 209:494.0 217:171.0 260:106.0 348:194.0 430:120.0 607:437.0 631:132.0 875:223.0 891:141.0 
0.8146496598175104 1.0 3:98.0 20:113.0 22:296.0 102:106.0 129:211.0 140:239.0 423:97.0 645:189.0 936:1389.0 
0.8146496598175104 1.0 16:196.0 17:250.0 20:161.0 48:208.0 59:217.0 66:255.0 99:198.0 206:107.0 209:121.0 223:255.0 347:215.0 479:583.0 885:266.0 
0.8146619864722555 1.0 16:584.0 18:154.0 97:194.0 105:1137.0 126:175.0 421:287.0 598:1009.0 647:174.0 737:273.0 
0.8151655991234075 1.0 28:102.0 43:106.0 126:93.0 280:152.0 311:151.0 329:107.0 334:414.0 340:254.0 410:70.0 452:183.0 551:165.0 562:114.0 563:143.0 642:142.0 891:129.0 
0.8151655991234075 1.0 209:296.0 639:2178.0 880:666.0 
0.8151666502055429 1.0 55:275.0 137:225.0 395:613.0 626:279.0 730:316.0 
0.815166650205543 1.0 54:151.0 55:269.0 97:95.0 137:220.0 209:117.0 395:499.0 423:134.0 425:133.0 721:191.0 730:154.0 
0.8151999752617813 1.0 6:509.0 13:402.0 209:289.0 329:481.0 347:513.0 
0.8152324711950784 1.0 421:602.0 568:510.0 
0.8152324711950784 1.0 105:111.0 227:294.0 423:94.0 453:149.0 654:793.0 878:238.0 
0.815232471181151 1.0 13:27.0 32:73.0 35:67.0 50:88.0 90:38.0 96:41.0 97:32.0 112:82.0 228:61.0 247:116.0 260:30.0 264:45.0 284:31.0 312:42.0 314:51.0 334:42.0 345:123.0 347:35.0 396:55.0 421:47.0 423:114.0 432:61.0 433:56.0 453:71.0 523:68.0 534:221.0 654:47.0 761:56.0 782:48.0 861:66.0 865:33.0 909:69.0 
0.815232471181151 1.0 55:1903.0 97:448.0 100:686.0 137:1556.0 730:2189.0 
0.8149632562191584 1.0 1:104.0 4:73.0 18:44.0 20:46.0 31:62.0 74:184.0 86:52.0 88:70.0 99:56.0 102:43.0 104:201.0 105:93.0 129:214.0 135:89.0 164:45.0 188:48.0 204:215.0 205:58.0 207:108.0 285:83.0 348:47.0 410:37.0 423:39.0 424:91.0 430:59.0 441:81.0 453:62.0 551:88.0 631:65.0 737:78.0 767:71.0 883:220.0 891:139.0 
0.815232471181151 1.0 55:267.0 137:219.0 395:597.0 440:712.0 626:271.0 
0.815232471181151 1.0 347:409.0 573:759.0 870:1734.0 
0.8152324711687519 1.0 13:191.0 37:366.0 97:221.0 100:339.0 207:1285.0 318:366.0 348:189.0 423:157.0 747:516.0 932:557.0 953:811.0 
0.8152324711687519 1.0 111:91.0 134:1489.0 141:122.0 385:124.0 447:141.0 519:81.0 525:72.0 732:169.0 738:109.0 751:95.0 780:134.0 823:304.0 873:122.0 878:201.0 
0.8152316912082017 1.0 5:114.0 16:429.0 18:169.0 22:114.0 25:184.0 97:107.0 105:179.0 270:90.0 288:344.0 404:118.0 534:105.0 625:133.0 643:231.0 749:176.0 
0.8152316912082017 1.0 3:225.0 4:520.0 5:169.0 18:250.0 22:169.0 23:245.0 35:331.0 74:346.0 104:227.0 136:220.0 167:151.0 173:163.0 188:276.0 205:329.0 207:305.0 208:303.0 256:244.0 260:296.0 264:221.0 410:106.0 453:351.0 525:607.0 631:917.0 747:368.0 
0.8152316912082017 1.0 13:215.0 48:265.0 158:469.0 270:421.0 404:552.0 480:335.0 632:341.0 728:433.0 885:1355.0 907:465.0 
0.8152316912082017 1.0 30:195.0 105:116.0 119:137.0 206:153.0 348:119.0 410:283.0 645:191.0 936:703.0 
0.8152305540089131 1.0 96:213.0 105:139.0 173:171.0 188:145.0 282:307.0 298:396.0 342:1219.0 348:142.0 447:418.0 553:293.0 735:406.0 742:359.0 
0.8152305540089131 1.0 289:595.0 346:1293.0 882:3294.0 
0.8152305540089131 1.0 26:374.0 52:507.0 102:197.0 128:244.0 129:195.0 648:1353.0 
0.8152305540089131 1.0 26:480.0 102:253.0 104:945.0 140:1137.0 425:2308.0 
0.8152931218748853 1.0 11:226.0 90:283.0 204:458.0 424:388.0 568:299.0 882:393.0 
0.8152931218748853 1.0 43:233.0 60:312.0 97:228.0 202:959.0 534:225.0 
0.8152931218748853 1.0 16:1435.0 97:477.0 422:843.0 
0.8152931218748853 1.0 3:247.0 23:268.0 80:242.0 93:266.0 96:222.0 118:205.0 128:165.0 205:180.0 260:162.0 264:484.0 410:116.0 430:182.0 448:195.0 473:200.0 758:545.0 789:383.0 867:300.0 891:431.0 
0.8152931213221633 1.0 11:37.0 18:62.0 23:154.0 31:43.0 35:41.0 80:55.0 90:47.0 102:30.0 105:132.0 126:107.0 128:76.0 145:50.0 164:32.0 167:38.0 188:138.0 218:54.0 285:118.0 289:35.0 291:315.0 314:63.0 328:69.0 329:40.0 345:76.0 348:135.0 384:173.0 385:174.0 410:53.0 423:28.0 430:42.0 477:76.0 553:70.0 631:46.0 645:108.0 647:35.0 649:87.0 720:55.0 737:55.0 878:70.0 919:124.0 944:189.0 
0.8152931213153122 1.0 2:128.0 3:89.0 4:113.0 9:15.0 13:19.0 18:27.0 20:18.0 22:36.0 23:88.0 28:67.0 31:37.0 35:23.0 36:56.0 48:24.0 67:18.0 96:29.0 99:34.0 101:20.0 103:45.0 104:16.0 105:47.0 128:65.0 136:15.0 138:22.0 154:21.0 164:36.0 167:219.0 186:25.0 188:49.0 205:23.0 207:22.0 217:17.0 260:246.0 261:18.0 262:24.0 270:19.0 272:38.0 280:16.0 282:21.0 288:18.0 291:54.0 307:19.0 323:26.0 334:30.0 340:27.0 348:29.0 384:350.0 387:23.0 389:17.0 410:123.0 425:32.0 430:48.0 436:61.0 453:114.0 470:21.0 481:22.0 525:29.0 538:23.0 542:48.0 551:18.0 553:20.0 557:25.0 563:31.0 631:93.0 646:19.0 648:20.0 651:26.0 653:23.0 655:61.0 748:48.0 760:61.0 764:53.0 789:50.0 827:30.0 921:26.0 943:30.0 
0.8152931213076245 1.0 645:462.0 
0.8152931213076245 1.0 47:61.0 88:59.0 97:238.0 102:36.0 104:34.0 201:329.0 209:29.0 257:85.0 292:73.0 348:81.0 400:92.0 404:422.0 423:33.0 429:114.0 566:130.0 626:68.0 720:67.0 725:77.0 778:113.0 782:71.0 828:135.0 865:50.0 890:77.0 
0.8153106364553324 1.0 4:46.0 10:208.0 13:181.0 16:281.0 20:57.0 61:268.0 119:206.0 129:53.0 164:56.0 166:75.0 167:67.0 206:76.0 209:43.0 243:105.0 256:217.0 284:139.0 604:123.0 647:126.0 776:668.0 865:147.0 
0.815310636449658 1.0 66:75.0 166:62.0 225:183.0 395:2863.0 885:236.0 
0.8153374045204587 1.0 129:115.0 292:938.0 399:1191.0 405:1270.0 424:246.0 534:298.0 
0.8149411049960753 1.0 534:408.0 
0.8149269945669924 1.0 55:493.0 137:403.0 395:549.0 440:984.0 626:250.0 
0.814739865354346 1.0 206:119.0 397:394.0 534:1500.0 903:336.0 
0.8150904553876899 1.0 18:316.0 102:309.0 
0.8152931211986634 1.0 55:323.0 100:350.0 137:264.0 395:721.0 440:430.0 626:1971.0 
0.8144460249155538 1.0 3:245.0 104:247.0 209:425.0 292:531.0 405:719.0 534:1353.0 654:508.0 917:429.0 
0.8151851994029482 1.0 31:200.0 66:472.0 88:228.0 104:654.0 204:697.0 205:189.0 257:162.0 410:122.0 519:263.0 917:227.0 
0.8151644445955817 1.0 18:274.0 48:183.0 594:898.0 863:610.0 
0.8145395034905966 1.0 3:144.0 18:159.0 67:321.0 104:72.0 129:230.0 435:214.0 480:135.0 544:154.0 637:173.0 658:676.0 748:143.0 
0.8146496598175104 1.0 2:193.0 3:473.0 48:604.0 56:135.0 60:129.0 166:204.0 193:195.0 427:123.0 760:509.0 
0.8151925167646505 1.0 18:26.0 22:35.0 47:42.0 59:36.0 70:49.0 73:47.0 86:31.0 88:41.0 90:39.0 99:33.0 102:25.0 104:167.0 111:162.0 126:59.0 134:145.0 135:52.0 138:32.0 140:28.0 145:42.0 151:177.0 185:49.0 188:28.0 190:77.0 207:32.0 218:45.0 227:72.0 253:56.0 264:93.0 285:98.0 287:148.0 289:29.0 298:79.0 328:57.0 329:34.0 341:166.0 343:81.0 348:56.0 410:67.0 423:23.0 438:195.0 473:38.0 525:42.0 556:65.0 562:36.0 568:41.0 576:72.0 600:86.0 625:41.0 627:49.0 633:66.0 634:437.0 647:29.0 656:74.0 720:46.0 732:99.0 738:64.0 741:74.0 748:94.0 820:89.0 865:34.0 871:60.0 886:72.0 909:71.0 927:44.0 961:83.0 
0.8150976300002771 1.0 106:296.0 167:508.0 209:328.0 270:223.0 395:834.0 
0.8002139967637519 1.0 137:591.0 243:2293.0 246:733.0 632:699.0 881:737.0 885:693.0 
0.8148124641623229 1.0 73:2131.0 90:703.0 104:213.0 145:377.0 769:894.0 
0.8153106364553324 1.0 11:87.0 23:71.0 93:141.0 104:66.0 105:153.0 118:109.0 130:1239.0 138:813.0 164:74.0 430:97.0 475:361.0 552:163.0 719:168.0 
0.8153057002568285 1.0 264:993.0 
0.814844730044481 1.0 104:236.0 136:457.0 160:697.0 188:286.0 190:380.0 534:323.0 
0.8146992431247781 1.0 48:730.0 390:479.0 863:404.0 
0.8144808382874635 1.0 55:280.0 137:229.0 395:624.0 440:372.0 626:284.0 730:322.0 
0.8144561525726948 1.0 55:319.0 97:263.0 100:230.0 137:261.0 209:139.0 395:593.0 423:160.0 721:75.0 730:61.0 
0.8144561525726948 1.0 16:427.0 38:249.0 71:303.0 97:213.0 129:488.0 206:116.0 260:200.0 284:211.0 647:191.0 725:694.0 
0.8152305540089131 1.0 3:71.0 6:108.0 11:376.0 20:81.0 23:154.0 28:97.0 47:127.0 49:142.0 88:249.0 102:76.0 104:214.0 105:83.0 118:118.0 119:97.0 129:75.0 140:172.0 164:80.0 188:86.0 189:412.0 190:115.0 207:191.0 281:149.0 284:197.0 285:147.0 290:132.0 306:163.0 312:132.0 318:163.0 348:84.0 634:187.0 647:446.0 720:139.0 
0.8144460249155538 1.0 104:293.0 129:310.0 655:545.0 883:1599.0 
0.8152296961869087 1.0 3:397.0 4:366.0 23:432.0 126:250.0 167:266.0 256:430.0 384:303.0 410:187.0 
0.8152931083467249 1.0 137:1390.0 423:60.0 
0.8152931218748853 1.0 105:334.0 164:107.0 205:69.0 206:182.0 209:41.0 257:59.0 270:56.0 358:139.0 404:73.0 448:151.0 476:139.0 479:198.0 758:105.0 789:1704.0 881:1638.0 891:83.0 901:167.0 917:83.0 942:105.0 
0.8150758430365309 1.0 13:473.0 55:777.0 137:635.0 423:778.0 730:893.0 
0.8151655991234075 1.0 55:398.0 97:562.0 100:862.0 137:325.0 395:888.0 626:3235.0 
0.815232471181151 1.0 138:157.0 206:87.0 249:746.0 285:238.0 287:358.0 348:136.0 410:108.0 424:260.0 550:270.0 720:451.0 920:746.0 
0.8149857705949698 1.0 22:59.0 32:128.0 50:77.0 54:88.0 90:66.0 106:62.0 128:106.0 138:54.0 187:91.0 206:213.0 348:95.0 423:39.0 425:157.0 642:152.0 645:305.0 891:69.0 907:103.0 
0.8145395034905966 1.0 5:95.0 18:70.0 20:73.0 29:332.0 43:91.0 91:121.0 126:161.0 136:124.0 164:72.0 246:128.0 264:375.0 397:323.0 399:175.0 430:94.0 534:88.0 548:171.0 575:336.0 647:80.0 723:679.0 
0.8145395034905966 1.0 264:176.0 292:195.0 399:496.0 405:264.0 423:89.0 534:373.0 575:237.0 723:240.0 
0.8146619864722788 1.0 13:76.0 36:73.0 104:31.0 106:546.0 170:88.0 206:48.0 209:27.0 257:79.0 270:37.0 292:68.0 534:306.0 566:121.0 632:303.0 789:49.0 881:1024.0 
0.8146619864722555 1.0 55:304.0 137:249.0 395:679.0 626:927.0 730:350.0 929:526.0 
0.8153374045204587 1.0 104:86.0 206:66.0 209:299.0 270:101.0 534:1189.0 810:651.0 903:373.0 
0.8151654817374618 1.0 26:699.0 102:369.0 145:606.0 206:523.0 627:714.0 
0.8151464719376134 1.0 102:386.0 129:381.0 516:889.0 790:3764.0 
0.8111989963423251 1.0 13:700.0 423:576.0 
0.8112703479728465 1.0 13:757.0 423:622.0 
0.8151464719376134 1.0 55:301.0 97:319.0 100:489.0 137:246.0 395:672.0 626:1224.0 
0.815091235071083 1.0 13:111.0 16:130.0 18:51.0 97:64.0 199:224.0 203:90.0 209:120.0 270:54.0 314:104.0 334:86.0 389:101.0 395:409.0 423:46.0 425:91.0 534:64.0 604:114.0 607:124.0 744:101.0 803:163.0 919:101.0 
0.8150904553876899 1.0 608:563.0 953:557.0 
0.8150904553876899 1.0 119:500.0 206:699.0 217:384.0 383:1622.0 
0.8150646988815853 1.0 18:121.0 102:118.0 105:128.0 140:266.0 348:131.0 430:162.0 598:398.0 789:340.0 825:1657.0 953:280.0 
0.8150615978065202 1.0 13:350.0 97:2439.0 100:3735.0 
0.8149878383573682 1.0 3:53.0 4:99.0 8:88.0 16:150.0 19:130.0 21:748.0 61:95.0 104:271.0 106:168.0 140:65.0 167:72.0 189:103.0 348:64.0 399:443.0 473:174.0 534:74.0 552:133.0 566:102.0 575:424.0 647:67.0 760:101.0 903:232.0 924:151.0 943:202.0 952:130.0 
0.8148447300444845 1.0 3:103.0 4:95.0 16:145.0 20:59.0 32:83.0 55:102.0 97:144.0 100:110.0 129:55.0 137:83.0 167:139.0 209:89.0 256:112.0 260:136.0 270:61.0 347:239.0 388:151.0 395:304.0 423:205.0 725:236.0 749:119.0 865:76.0 952:125.0 
0.814844730044481 1.0 16:1240.0 102:239.0 422:2185.0 
0.814844730044481 1.0 23:47.0 32:34.0 35:159.0 55:42.0 74:66.0 86:28.0 102:23.0 105:127.0 118:36.0 126:54.0 173:31.0 186:33.0 188:26.0 214:67.0 218:83.0 221:49.0 225:48.0 231:56.0 260:142.0 285:45.0 289:27.0 291:722.0 293:54.0 312:40.0 314:97.0 340:74.0 348:103.0 384:66.0 410:81.0 424:49.0 429:36.0 470:56.0 477:58.0 525:38.0 562:199.0 568:228.0 604:53.0 628:53.0 647:27.0 649:66.0 919:47.0 923:66.0 
0.8146992431247781 1.0 23:68.0 106:98.0 126:159.0 128:84.0 164:71.0 184:179.0 188:308.0 204:169.0 250:205.0 289:78.0 298:210.0 342:431.0 348:225.0 547:420.0 556:175.0 593:458.0 596:229.0 600:229.0 739:322.0 763:205.0 812:238.0 820:238.0 878:314.0 906:184.0 909:190.0 920:205.0 
0.8146992431247781 1.0 26:447.0 61:778.0 102:236.0 410:411.0 767:778.0 860:449.0 
0.8152316912082017 1.0 102:278.0 917:450.0 
0.8153374045206354 1.0 12:80.0 17:78.0 20:50.0 27:107.0 28:120.0 34:96.0 59:340.0 66:159.0 94:110.0 98:96.0 104:88.0 107:116.0 108:116.0 112:78.0 119:240.0 126:165.0 129:140.0 133:114.0 138:301.0 140:53.0 148:97.0 153:113.0 154:113.0 156:125.0 164:49.0 173:63.0 192:115.0 205:63.0 206:100.0 209:38.0 271:85.0 308:128.0 309:113.0 329:63.0 347:67.0 410:206.0 423:43.0 430:64.0 439:108.0 473:71.0 545:101.0 625:76.0 728:106.0 737:86.0 767:234.0 772:95.0 865:64.0 880:85.0 890:99.0 917:76.0 
0.8152316912082017 1.0 51:230.0 55:228.0 100:247.0 137:186.0 395:509.0 440:304.0 730:262.0 
0.8152302116095613 1.0 26:656.0 102:346.0 395:1413.0 
0.8152296974776903 1.0 26:434.0 102:229.0 105:248.0 207:286.0 
0.8152296974516249 1.0 5:169.0 16:158.0 18:125.0 26:463.0 39:247.0 97:157.0 102:122.0 422:279.0 423:112.0 435:336.0 568:198.0 865:166.0 
0.8152296970300527 1.0 5:228.0 206:116.0 386:440.0 632:292.0 795:536.0 881:615.0 974:536.0 
0.8152296961869087 1.0 16:611.0 190:1417.0 404:337.0 917:381.0 
0.8152296961869087 1.0 16:319.0 17:406.0 190:1478.0 209:197.0 347:350.0 479:473.0 
0.8150758430365309 1.0 134:847.0 173:49.0 227:211.0 328:251.0 389:150.0 738:187.0 810:259.0 888:105.0 
0.815075843036531 1.0 1:48.0 3:37.0 4:102.0 5:55.0 11:98.0 18:41.0 20:128.0 23:120.0 28:50.0 31:57.0 33:83.0 38:181.0 43:52.0 104:37.0 138:50.0 164:41.0 166:55.0 167:49.0 203:71.0 206:85.0 209:96.0 257:46.0 268:94.0 280:75.0 311:75.0 329:160.0 334:206.0 340:126.0 410:104.0 452:91.0 551:82.0 562:56.0 563:214.0 607:99.0 642:70.0 647:46.0 656:115.0 764:120.0 891:64.0 952:90.0 
0.8151459137250341 1.0 6:130.0 23:93.0 51:343.0 61:153.0 87:217.0 90:142.0 118:142.0 137:138.0 186:134.0 198:211.0 206:65.0 209:148.0 284:119.0 395:252.0 423:85.0 453:133.0 562:263.0 629:217.0 642:164.0 647:107.0 913:273.0 
0.8151459137250341 1.0 6:64.0 9:41.0 18:23.0 20:48.0 35:247.0 38:34.0 42:53.0 72:45.0 74:129.0 103:58.0 121:94.0 140:25.0 189:40.0 206:16.0 207:56.0 230:63.0 243:220.0 246:42.0 257:26.0 271:41.0 289:79.0 290:39.0 348:25.0 380:56.0 404:32.0 410:298.0 425:124.0 427:38.0 429:70.0 430:31.0 444:67.0 448:33.0 527:63.0 551:46.0 608:708.0 629:53.0 647:79.0 732:44.0 744:231.0 767:112.0 861:61.0 891:36.0 897:117.0 938:74.0 
0.8151655991234075 1.0 47:54.0 102:32.0 204:81.0 260:39.0 285:62.0 289:37.0 346:82.0 385:92.0 410:28.0 453:94.0 550:71.0 569:92.0 634:79.0 722:87.0 759:170.0 811:109.0 907:78.0 
0.8151655991234075 1.0 26:585.0 102:309.0 423:849.0 453:444.0 
0.8151666502055429 1.0 4:167.0 18:201.0 30:177.0 102:196.0 129:291.0 135:202.0 204:244.0 206:139.0 217:191.0 285:189.0 448:143.0 522:192.0 560:236.0 568:478.0 750:177.0 883:249.0 917:158.0 942:201.0 
0.815166650205543 1.0 73:685.0 99:160.0 140:276.0 264:669.0 313:599.0 423:112.0 
0.8144392647753 1.0 12:239.0 18:241.0 35:63.0 62:117.0 71:43.0 97:30.0 166:65.0 209:37.0 212:479.0 218:126.0 222:97.0 246:43.0 270:25.0 285:45.0 287:136.0 289:136.0 291:48.0 317:56.0 334:121.0 379:161.0 391:65.0 395:32.0 422:161.0 427:39.0 429:73.0 603:92.0 632:83.0 730:49.0 789:33.0 860:44.0 881:44.0 
0.8149747868576528 1.0 4:110.0 5:60.0 12:73.0 20:46.0 21:79.0 22:60.0 23:87.0 35:58.0 43:57.0 51:400.0 54:89.0 61:71.0 91:152.0 99:56.0 100:85.0 119:164.0 129:42.0 136:78.0 145:142.0 166:60.0 205:58.0 206:61.0 212:110.0 222:89.0 223:145.0 243:754.0 247:101.0 257:150.0 284:111.0 329:57.0 334:297.0 348:47.0 404:248.0 448:63.0 473:65.0 552:99.0 562:61.0 628:98.0 632:230.0 636:184.0 662:234.0 720:157.0 760:150.0 789:248.0 865:58.0 881:161.0 885:1217.0 888:123.0 900:250.0 
0.8149771859101347 1.0 18:46.0 20:48.0 28:57.0 32:67.0 38:68.0 39:92.0 50:81.0 73:1265.0 86:54.0 93:90.0 104:338.0 105:392.0 118:69.0 119:57.0 128:56.0 140:50.0 167:56.0 209:36.0 217:353.0 312:78.0 313:773.0 345:112.0 421:86.0 562:64.0 569:129.0 645:80.0 
0.8149857705949698 1.0 22:1274.0 102:459.0 129:453.0 280:1739.0 291:941.0 867:1031.0 
0.8144881837072557 1.0 37:297.0 207:1042.0 318:297.0 348:153.0 534:177.0 747:419.0 932:452.0 953:658.0 
0.8145395034905966 1.0 5:26.0 23:29.0 30:34.0 35:444.0 38:43.0 86:58.0 92:75.0 101:109.0 105:41.0 138:61.0 218:34.0 243:130.0 246:89.0 389:38.0 410:50.0 415:29.0 429:29.0 441:36.0 480:33.0 483:39.0 527:26.0 568:46.0 579:30.0 608:736.0 632:34.0 645:34.0 647:33.0 655:33.0 732:37.0 744:39.0 758:39.0 760:33.0 863:132.0 897:99.0 927:49.0 931:31.0 
0.8145395034905966 1.0 6:185.0 20:280.0 43:173.0 334:226.0 423:120.0 
0.8145395035686709 1.0 26:715.0 102:377.0 473:566.0 562:1070.0 
0.8146619864722788 1.0 11:37.0 14:64.0 23:30.0 35:41.0 38:137.0 74:85.0 86:73.0 105:98.0 121:62.0 140:33.0 164:31.0 188:34.0 207:75.0 230:169.0 261:62.0 280:114.0 289:70.0 296:82.0 343:95.0 384:42.0 398:76.0 410:52.0 430:41.0 535:372.0 553:138.0 562:42.0 642:107.0 645:53.0 647:35.0 750:109.0 782:58.0 789:86.0 824:98.0 919:61.0 921:182.0 
0.8146619864722555 1.0 11:105.0 53:101.0 80:78.0 96:143.0 104:40.0 111:90.0 138:54.0 173:115.0 185:83.0 186:62.0 188:48.0 205:58.0 227:367.0 250:129.0 298:132.0 332:96.0 343:408.0 344:336.0 348:142.0 403:88.0 410:187.0 471:112.0 476:116.0 519:80.0 520:96.0 556:110.0 568:70.0 576:122.0 600:144.0 625:69.0 633:112.0 720:157.0 722:115.0 738:216.0 741:374.0 744:87.0 820:150.0 892:113.0 909:120.0 919:174.0 
0.814770104389853 1.0 16:224.0 50:309.0 102:173.0 119:219.0 190:520.0 282:827.0 348:382.0 
0.8149269945669924 1.0 97:522.0 190:607.0 862:1040.0 
0.8149269945669924 1.0 280:574.0 404:434.0 534:386.0 562:429.0 
0.8149269945669924 1.0 2:108.0 4:35.0 5:57.0 8:124.0 12:278.0 18:84.0 21:75.0 42:96.0 82:84.0 99:53.0 112:135.0 119:104.0 136:148.0 145:67.0 164:42.0 166:57.0 188:185.0 193:109.0 195:97.0 208:102.0 260:49.0 296:111.0 483:167.0 522:80.0 528:459.0 562:174.0 720:74.0 748:75.0 865:55.0 942:253.0 
0.8149269945669924 1.0 26:447.0 102:236.0 104:219.0 105:1020.0 121:487.0 285:454.0 453:339.0 
0.8149411049960753 1.0 52:780.0 102:303.0 260:368.0 
0.8145395035680607 1.0 55:223.0 97:315.0 100:483.0 137:182.0 395:498.0 
1.0 1.0 12:161.0 17:78.0 20:50.0 27:108.0 28:121.0 34:97.0 59:342.0 66:160.0 94:110.0 98:97.0 104:88.0 107:117.0 108:117.0 112:78.0 119:242.0 126:166.0 129:94.0 133:115.0 138:303.0 140:53.0 148:98.0 153:113.0 154:113.0 156:125.0 164:49.0 173:63.0 192:116.0 205:64.0 206:101.0 209:38.0 271:86.0 308:129.0 329:63.0 347:67.0 410:208.0 423:43.0 430:65.0 439:108.0 473:71.0 545:101.0 625:76.0 642:84.0 728:107.0 737:86.0 767:236.0 772:95.0 865:64.0 880:86.0 890:100.0 917:77.0 
0.8149411049960753 0.9993251095023373 55:327.0 97:462.0 100:707.0 137:267.0 395:729.0 626:1992.0 
0.4936966045730785 0.6362882487832293 26:527.0 102:278.0 
0.8149437934382602 1.0 13:695.0 18:128.0 43:165.0 97:161.0 100:247.0 106:361.0 136:450.0 223:210.0 270:136.0 423:458.0 632:221.0 789:358.0 865:339.0 
0.8151644445955817 1.0 26:495.0 49:485.0 102:261.0 525:865.0 
0.8151644445955817 1.0 3:514.0 4:118.0 260:168.0 270:151.0 284:178.0 603:274.0 629:326.0 
0.8151644446605997 1.0 4:215.0 16:164.0 97:491.0 190:190.0 206:89.0 429:196.0 632:449.0 
0.8151644446605997 1.0 6:221.0 20:83.0 129:77.0 140:88.0 190:826.0 206:55.0 209:63.0 348:173.0 404:112.0 423:72.0 430:215.0 453:1585.0 479:151.0 536:382.0 544:155.0 551:161.0 562:111.0 563:140.0 627:152.0 642:139.0 
0.8152305540089131 1.0 13:259.0 789:1001.0 
0.8149857705949698 1.0 18:32.0 23:64.0 26:60.0 28:40.0 32:47.0 35:43.0 61:52.0 96:53.0 99:83.0 128:119.0 184:84.0 188:72.0 204:79.0 289:297.0 291:263.0 314:66.0 328:72.0 383:263.0 384:90.0 423:88.0 430:43.0 435:88.0 453:46.0 892:169.0 944:98.0 
0.8144808383433708 1.0 2:110.0 3:179.0 4:141.0 6:39.0 11:34.0 13:30.0 14:117.0 16:35.0 20:29.0 23:27.0 28:70.0 31:39.0 32:41.0 39:56.0 48:38.0 60:48.0 67:57.0 71:51.0 74:39.0 102:27.0 105:90.0 129:137.0 161:76.0 188:31.0 190:583.0 203:49.0 206:19.0 207:69.0 270:30.0 284:35.0 291:56.0 307:302.0 334:47.0 348:30.0 383:45.0 410:24.0 427:46.0 448:81.0 453:39.0 562:118.0 563:49.0 607:68.0 653:75.0 725:116.0 909:155.0 
0.8151464719376134 1.0 23:57.0 111:119.0 134:162.0 138:72.0 184:150.0 186:164.0 188:193.0 227:162.0 250:343.0 282:136.0 287:164.0 341:185.0 342:900.0 447:185.0 519:106.0 535:1121.0 553:260.0 556:146.0 568:277.0 569:162.0 603:112.0 625:91.0 738:286.0 741:164.0 811:191.0 827:198.0 878:131.0 
0.8151925167646505 1.0 5:52.0 11:23.0 20:20.0 22:52.0 32:27.0 35:229.0 38:28.0 43:74.0 86:45.0 99:24.0 106:27.0 119:71.0 130:81.0 188:21.0 221:119.0 243:509.0 246:244.0 260:22.0 270:20.0 305:91.0 398:47.0 404:26.0 410:65.0 423:17.0 424:118.0 568:30.0 604:42.0 608:493.0 631:28.0 642:99.0 644:44.0 647:21.0 719:44.0 751:81.0 863:85.0 865:51.0 867:42.0 868:43.0 875:143.0 882:80.0 897:96.0 927:97.0 931:61.0 
0.8151459137250341 1.0 55:244.0 97:172.0 100:264.0 137:200.0 395:545.0 626:248.0 
0.8152316912082017 1.0 129:541.0 
0.8152931227180296 1.0 26:140.0 102:74.0 105:160.0 206:368.0 289:85.0 328:166.0 348:81.0 410:64.0 423:136.0 425:135.0 448:108.0 727:201.0 750:133.0 863:169.0 891:119.0 
0.8151644445955817 1.0 2:72.0 6:38.0 9:197.0 18:84.0 23:27.0 28:69.0 43:36.0 48:37.0 72:109.0 74:77.0 80:49.0 86:99.0 90:41.0 93:54.0 104:153.0 105:148.0 112:45.0 118:126.0 119:69.0 127:63.0 130:59.0 140:92.0 172:70.0 200:71.0 206:77.0 207:102.0 257:31.0 260:33.0 261:56.0 284:70.0 312:141.0 322:82.0 381:77.0 384:38.0 387:73.0 404:117.0 410:334.0 416:84.0 427:46.0 429:84.0 441:103.0 448:80.0 453:39.0 483:55.0 516:63.0 519:154.0 522:53.0 568:44.0 628:62.0 629:192.0 645:48.0 647:63.0 748:50.0 791:89.0 885:48.0 924:71.0 927:47.0 
0.8151459137250341 1.0 395:584.0 423:591.0 935:2537.0 
0.8148447300445113 1.0 23:38.0 257:87.0 647:88.0 782:73.0 875:96.0 
0.8145395034895015 1.0 48:224.0 60:144.0 86:197.0 206:115.0 209:131.0 270:89.0 284:104.0 404:584.0 534:312.0 750:147.0 789:351.0 882:174.0 
0.815166650205543 1.0 104:104.0 189:402.0 207:280.0 270:122.0 404:160.0 430:153.0 516:259.0 647:261.0 789:161.0 
0.8149857705949697 1.0 8:113.0 34:455.0 137:446.0 209:239.0 218:133.0 395:101.0 632:131.0 865:101.0 
0.8150536913579164 1.0 105:78.0 264:131.0 283:314.0 403:148.0 404:103.0 410:189.0 423:66.0 430:99.0 448:106.0 536:176.0 553:165.0 566:128.0 635:180.0 
0.8151925167646505 1.0 13:1261.0 97:1463.0 100:2241.0 
0.8146496598175104 1.0 52:598.0 102:232.0 410:202.0 516:535.0 
0.8151925167646505 1.0 59:22.0 104:58.0 105:16.0 118:24.0 121:32.0 122:31.0 126:18.0 127:36.0 148:129.0 189:28.0 200:40.0 206:33.0 225:32.0 244:44.0 270:17.0 271:28.0 289:90.0 348:17.0 404:67.0 410:177.0 425:57.0 519:29.0 566:27.0 625:25.0 627:30.0 632:27.0 640:43.0 645:27.0 647:18.0 654:30.0 655:27.0 739:37.0 740:43.0 742:43.0 782:91.0 789:45.0 871:36.0 882:33.0 953:37.0 
0.8150976299976526 1.0 15:828.0 67:779.0 81:909.0 106:546.0 346:948.0 404:1080.0 480:657.0 637:841.0 789:1083.0 816:1317.0 
0.815310636449658 1.0 11:87.0 23:143.0 28:79.0 31:89.0 74:50.0 80:32.0 86:32.0 104:33.0 118:27.0 119:33.0 126:41.0 173:47.0 188:111.0 207:33.0 257:31.0 288:37.0 291:256.0 312:30.0 334:30.0 341:29.0 348:78.0 383:102.0 384:164.0 389:35.0 410:62.0 423:57.0 430:36.0 443:26.0 446:29.0 447:29.0 452:40.0 453:38.0 472:49.0 473:40.0 476:48.0 536:43.0 562:113.0 563:63.0 596:59.0 597:38.0 647:51.0 738:67.0 749:38.0 764:295.0 794:29.0 824:29.0 872:26.0 884:77.0 921:26.0 936:58.0 942:36.0 944:27.0 952:40.0 964:29.0 
0.814439264781593 1.0 8:71.0 18:97.0 23:524.0 28:180.0 38:71.0 61:78.0 86:57.0 88:77.0 90:72.0 104:44.0 105:51.0 118:145.0 128:176.0 138:120.0 206:33.0 260:57.0 290:81.0 312:163.0 318:101.0 329:126.0 332:106.0 348:52.0 423:43.0 441:89.0 471:123.0 473:71.0 519:88.0 536:115.0 544:281.0 552:109.0 562:67.0 633:247.0 642:84.0 645:84.0 719:112.0 871:111.0 891:76.0 
0.8153374045204587 1.0 105:125.0 129:114.0 190:349.0 207:145.0 280:220.0 284:149.0 383:382.0 404:166.0 452:265.0 453:1172.0 472:320.0 479:447.0 536:283.0 592:315.0 750:419.0 
0.8145395035687761 1.0 55:301.0 137:246.0 395:672.0 440:802.0 626:918.0 
0.8151464719376134 1.0 20:223.0 129:207.0 137:941.0 190:629.0 423:192.0 904:631.0 
0.8150615978065202 1.0 16:239.0 17:304.0 98:752.0 129:364.0 209:148.0 257:213.0 347:262.0 479:355.0 
0.8151851994029482 1.0 52:590.0 102:229.0 104:213.0 943:1601.0 
0.8151851994029482 1.0 13:573.0 50:920.0 52:661.0 102:257.0 223:433.0 453:741.0 
0.8152595998566798 1.0 26:656.0 102:346.0 632:1842.0 
0.8149771859098082 1.0 55:363.0 137:297.0 395:810.0 440:725.0 626:2029.0 
0.8150758430365309 1.0 23:644.0 26:1214.0 28:407.0 70:617.0 102:320.0 312:553.0 568:520.0 748:1178.0 
0.815075843036531 1.0 5:59.0 18:43.0 73:238.0 88:69.0 102:42.0 111:90.0 112:70.0 126:100.0 128:53.0 155:118.0 190:515.0 253:94.0 348:94.0 438:109.0 481:110.0 520:95.0 522:83.0 541:253.0 553:97.0 561:139.0 603:168.0 652:124.0 719:202.0 720:78.0 726:106.0 895:121.0 902:124.0 922:149.0 
0.8152296535084129 1.0 48:48.0 190:53.0 206:75.0 480:61.0 789:204.0 880:64.0 907:85.0 
0.8151459137250341 1.0 20:220.0 26:392.0 52:532.0 102:207.0 207:517.0 281:806.0 568:336.0 647:240.0 756:611.0 
0.8151655991234075 1.0 1:268.0 3:619.0 4:761.0 256:1790.0 284:861.0 
0.815166650205543 1.0 37:647.0 106:878.0 203:1634.0 288:630.0 316:698.0 321:1827.0 431:1600.0 480:527.0 796:2037.0 798:1018.0 
0.8152305540089131 1.0 11:93.0 38:115.0 99:99.0 105:576.0 140:85.0 188:86.0 209:244.0 282:181.0 289:176.0 311:143.0 340:240.0 384:430.0 410:265.0 519:142.0 553:173.0 645:269.0 
0.8152302116095614 1.0 11:55.0 126:52.0 249:407.0 291:92.0 298:971.0 314:93.0 329:240.0 348:49.0 385:128.0 599:151.0 601:151.0 645:79.0 720:82.0 815:157.0 822:175.0 824:146.0 873:125.0 884:391.0 
0.8152302116095613 1.0 137:2500.0 190:1672.0 423:510.0 626:1034.0 721:725.0 
0.8152296974992078 1.0 23:61.0 28:38.0 35:165.0 47:101.0 105:197.0 128:75.0 188:103.0 206:64.0 207:38.0 209:24.0 260:37.0 328:205.0 329:284.0 348:100.0 410:53.0 423:391.0 551:62.0 563:54.0 645:54.0 655:52.0 737:55.0 764:183.0 860:58.0 893:165.0 900:88.0 
0.8152296974776903 1.0 190:1962.0 348:206.0 380:463.0 404:534.0 453:537.0 744:378.0 
0.8152296974516249 1.0 22:481.0 26:656.0 52:891.0 74:491.0 86:419.0 88:563.0 102:346.0 145:1139.0 243:670.0 452:1583.0 568:563.0 748:637.0 
0.8152296974516249 1.0 55:1636.0 97:1155.0 100:1769.0 137:1338.0 
0.8152296970821836 1.0 2:19.0 4:24.0 8:22.0 18:29.0 23:29.0 33:30.0 38:21.0 43:19.0 56:26.0 60:25.0 61:23.0 74:61.0 95:35.0 102:14.0 112:23.0 164:15.0 167:18.0 183:33.0 186:41.0 188:32.0 205:39.0 207:72.0 218:129.0 222:29.0 257:16.0 262:39.0 284:18.0 290:124.0 293:33.0 332:32.0 348:32.0 404:62.0 410:278.0 421:27.0 427:24.0 429:22.0 452:33.0 471:37.0 480:25.0 519:27.0 544:28.0 563:103.0 603:28.0 654:27.0 662:39.0 722:38.0 732:28.0 740:39.0 744:58.0 748:53.0 751:31.0 758:29.0 789:41.0 800:141.0 868:33.0 897:37.0 
0.8152931211832881 1.0 129:453.0 383:754.0 
1.0 1.0 
0.8152928463874174 1.0 66:218.0 105:420.0 206:91.0 209:104.0 223:218.0 645:459.0 
0.8152928463874174 1.0 6:65.0 20:35.0 21:36.0 48:27.0 49:61.0 56:24.0 60:34.0 66:33.0 67:27.0 71:24.0 73:24.0 99:112.0 104:135.0 105:35.0 106:57.0 130:28.0 162:24.0 183:30.0 209:26.0 218:59.0 225:27.0 264:23.0 268:31.0 289:53.0 395:26.0 404:75.0 425:24.0 432:65.0 448:87.0 534:25.0 563:23.0 645:35.0 654:75.0 655:57.0 767:54.0 789:47.0 881:49.0 887:37.0 
0.8152874117986018 1.0 18:131.0 50:230.0 248:348.0 534:492.0 880:232.0 
0.8149269945669924 1.0 105:844.0 223:328.0 453:281.0 573:514.0 645:691.0 
0.8151644446605997 1.0 4:62.0 9:132.0 12:124.0 13:163.0 16:95.0 75:165.0 106:106.0 281:143.0 379:167.0 410:64.0 423:67.0 570:182.0 789:211.0 907:177.0 
0.8145395034905966 1.0 18:15.0 22:84.0 23:15.0 35:20.0 40:35.0 80:27.0 90:116.0 91:53.0 112:24.0 118:23.0 119:19.0 126:52.0 128:18.0 135:31.0 138:19.0 164:15.0 190:45.0 208:37.0 218:27.0 223:25.0 241:78.0 257:17.0 261:31.0 289:17.0 328:34.0 329:20.0 348:33.0 403:62.0 424:31.0 438:38.0 449:123.0 454:306.0 562:42.0 566:213.0 568:49.0 634:36.0 647:17.0 736:39.0 737:27.0 860:86.0 882:64.0 919:30.0 954:36.0 
0.8153080791681679 1.0 16:127.0 18:101.0 20:105.0 32:146.0 55:180.0 129:292.0 164:103.0 209:158.0 280:187.0 284:126.0 347:280.0 412:304.0 422:225.0 533:251.0 659:571.0 
0.8144808382874635 1.0 4:65.0 74:217.0 102:230.0 129:227.0 188:173.0 204:382.0 206:163.0 207:191.0 284:98.0 306:163.0 410:134.0 448:112.0 453:110.0 520:171.0 628:175.0 647:89.0 720:139.0 883:195.0 891:123.0 
0.8144808382874635 1.0 13:727.0 97:844.0 100:1293.0 423:599.0 
0.814469754667051 1.0 8:201.0 190:1195.0 264:481.0 404:379.0 
0.8144561525726948 1.0 3:89.0 4:82.0 10:186.0 17:160.0 20:103.0 32:144.0 48:133.0 59:139.0 62:241.0 66:163.0 99:126.0 140:108.0 167:120.0 190:874.0 206:206.0 209:77.0 223:163.0 347:138.0 395:131.0 427:164.0 448:141.0 479:373.0 
0.8144561525726948 1.0 18:33.0 28:41.0 39:32.0 53:76.0 61:53.0 86:39.0 93:32.0 96:54.0 121:67.0 126:56.0 164:16.0 173:152.0 186:188.0 199:36.0 227:46.0 281:31.0 311:61.0 329:65.0 332:36.0 342:102.0 348:35.0 384:22.0 385:92.0 398:206.0 410:141.0 421:31.0 429:25.0 453:46.0 473:24.0 475:41.0 535:80.0 553:222.0 556:41.0 600:163.0 601:109.0 603:32.0 633:42.0 645:172.0 741:94.0 748:29.0 763:98.0 811:54.0 814:227.0 860:30.0 865:44.0 878:37.0 884:47.0 919:32.0 921:196.0 936:951.0 944:50.0 
0.8144561525726948 1.0 40:188.0 134:1386.0 184:214.0 249:244.0 314:168.0 410:70.0 443:239.0 553:371.0 817:567.0 821:283.0 823:283.0 827:283.0 873:227.0 
0.8144561525726948 1.0 30:273.0 184:400.0 249:913.0 250:456.0 348:167.0 410:132.0 435:1252.0 568:246.0 601:509.0 823:1058.0 878:349.0 
0.8144561525726948 1.0 13:295.0 106:769.0 423:243.0 
0.8152931218748853 1.0 23:289.0 26:1091.0 102:288.0 126:335.0 
0.8152931218748853 1.0 91:106.0 164:63.0 206:128.0 209:48.0 264:109.0 341:196.0 519:113.0 522:118.0 595:608.0 603:118.0 902:174.0 937:196.0 
0.8152931213153122 1.0 8:71.0 23:47.0 105:76.0 126:82.0 270:25.0 271:85.0 348:26.0 403:48.0 595:79.0 626:87.0 646:154.0 647:54.0 819:101.0 963:76.0 
0.8152931213076245 1.0 2:22.0 4:14.0 16:22.0 23:17.0 48:23.0 72:34.0 88:28.0 97:22.0 119:22.0 135:35.0 144:42.0 164:18.0 198:39.0 206:24.0 207:21.0 209:55.0 253:38.0 289:20.0 347:123.0 395:731.0 422:39.0 534:66.0 540:92.0 553:79.0 569:49.0 626:32.0 738:43.0 865:47.0 880:187.0 885:30.0 888:49.0 904:104.0 930:56.0 954:41.0 966:121.0 
0.8151999752617813 1.0 26:656.0 102:346.0 534:883.0 
0.8152324711958028 1.0 1:95.0 3:293.0 4:169.0 5:55.0 11:48.0 13:176.0 18:81.0 21:72.0 22:110.0 23:39.0 31:56.0 32:118.0 40:92.0 48:54.0 49:147.0 60:69.0 82:81.0 99:103.0 104:36.0 105:42.0 123:390.0 164:41.0 205:106.0 217:77.0 218:70.0 256:317.0 260:144.0 282:94.0 284:51.0 332:89.0 355:97.0 533:201.0 551:81.0 625:63.0 631:59.0 633:103.0 647:46.0 768:96.0 781:244.0 782:153.0 789:56.0 867:178.0 911:122.0 927:68.0 
0.8152324711950784 1.0 26:480.0 99:331.0 102:253.0 209:203.0 534:323.0 723:623.0 
0.8144392647412522 1.0 1:109.0 4:77.0 18:46.0 31:64.0 74:193.0 86:54.0 88:73.0 99:59.0 102:90.0 104:211.0 105:98.0 129:134.0 135:93.0 164:47.0 188:51.0 204:225.0 205:61.0 207:113.0 285:87.0 348:50.0 410:39.0 424:95.0 430:62.0 441:85.0 453:65.0 551:93.0 631:68.0 737:82.0 767:74.0 883:115.0 891:146.0 
0.815232471181151 1.0 52:546.0 86:256.0 102:212.0 186:920.0 475:539.0 934:560.0 
0.8149857705949698 1.0 51:241.0 55:239.0 100:258.0 137:195.0 395:532.0 440:318.0 626:242.0 730:275.0 
0.8150076325433138 1.0 55:246.0 137:1412.0 423:247.0 721:1053.0 
0.8144881837072557 1.0 59:51.0 126:41.0 185:69.0 188:121.0 227:508.0 270:39.0 291:73.0 343:112.0 348:39.0 396:79.0 398:90.0 447:116.0 453:51.0 604:81.0 735:338.0 738:359.0 782:207.0 814:124.0 815:249.0 884:413.0 
0.8146619864722555 1.0 30:58.0 31:46.0 47:54.0 104:30.0 121:134.0 173:43.0 186:47.0 188:36.0 264:59.0 282:155.0 289:37.0 290:56.0 311:61.0 332:73.0 344:127.0 348:72.0 398:249.0 403:67.0 410:170.0 438:83.0 536:79.0 547:100.0 562:46.0 574:103.0 576:92.0 638:127.0 720:237.0 735:103.0 737:59.0 738:246.0 739:77.0 742:91.0 744:66.0 748:60.0 884:378.0 887:92.0 921:98.0 
0.814770104389853 1.0 137:1089.0 190:728.0 626:1351.0 904:730.0 
0.8149269945669924 1.0 13:193.0 190:1041.0 289:200.0 346:435.0 423:158.0 882:369.0 
0.8149269945669924 1.0 13:378.0 102:340.0 105:734.0 129:335.0 
0.8149411049960753 1.0 30:111.0 38:46.0 61:153.0 93:61.0 102:30.0 119:78.0 144:76.0 204:76.0 207:38.0 226:76.0 289:107.0 345:76.0 348:68.0 398:78.0 423:28.0 446:100.0 535:76.0 550:134.0 568:100.0 720:56.0 748:56.0 925:79.0 937:100.0 962:301.0 
0.8149437934382602 1.0 399:784.0 440:1503.0 575:751.0 
0.8150758430365309 1.0 4:782.0 22:637.0 26:869.0 102:459.0 256:1838.0 748:844.0 
0.8151655991234075 1.0 26:1149.0 102:303.0 920:913.0 
0.8152296970300527 1.0 99:126.0 105:104.0 119:122.0 203:173.0 206:205.0 289:111.0 865:262.0 882:205.0 
0.8152296961869087 1.0 4:39.0 11:114.0 20:99.0 23:140.0 28:59.0 86:112.0 93:92.0 105:50.0 106:67.0 118:71.0 119:59.0 126:54.0 130:101.0 135:96.0 138:59.0 140:157.0 188:52.0 207:58.0 217:90.0 348:51.0 383:76.0 384:65.0 429:72.0 625:74.0 751:101.0 882:199.0 905:114.0 
0.8152296961869087 1.0 18:512.0 48:687.0 164:521.0 209:400.0 283:2162.0 480:869.0 534:636.0 
0.8152296961869087 1.0 50:646.0 264:655.0 
0.8152874117986018 1.0 102:386.0 297:1296.0 
0.8152827562358475 1.0 55:2220.0 97:1568.0 100:2401.0 137:1816.0 
0.8153028763357146 1.0 104:255.0 121:565.0 148:565.0 188:309.0 
0.8144561525726948 1.0 3:40.0 4:111.0 5:60.0 11:53.0 13:48.0 20:186.0 21:80.0 87:102.0 102:43.0 104:40.0 119:110.0 129:43.0 167:54.0 186:63.0 206:30.0 257:50.0 280:248.0 334:75.0 423:120.0 446:141.0 524:103.0 534:55.0 562:61.0 637:97.0 865:59.0 905:107.0 912:128.0 
0.8152305540089131 1.0 11:21.0 13:39.0 74:49.0 132:41.0 224:43.0 243:51.0 246:65.0 264:31.0 271:31.0 305:42.0 345:21.0 386:23.0 423:32.0 432:21.0 433:39.0 481:22.0 521:48.0 530:24.0 556:22.0 570:21.0 594:59.0 608:42.0 628:40.0 751:57.0 775:27.0 789:25.0 863:140.0 882:37.0 931:85.0 938:28.0 954:42.0 
0.8152305540089131 1.0 1:30.0 2:68.0 4:87.0 5:35.0 8:39.0 16:33.0 18:26.0 20:27.0 23:25.0 28:98.0 38:77.0 43:34.0 48:35.0 99:33.0 105:27.0 128:31.0 129:50.0 140:231.0 145:42.0 154:61.0 164:53.0 189:46.0 190:387.0 206:36.0 209:82.0 225:52.0 247:60.0 256:51.0 257:29.0 270:28.0 280:97.0 284:33.0 285:49.0 309:61.0 380:64.0 383:42.0 404:221.0 421:49.0 423:23.0 431:67.0 448:37.0 453:74.0 536:62.0 562:146.0 563:184.0 569:73.0 631:38.0 636:54.0 654:98.0 720:46.0 748:47.0 750:46.0 865:35.0 868:59.0 
0.8152305540089131 1.0 11:153.0 13:139.0 22:173.0 23:251.0 28:158.0 190:562.0 206:88.0 209:400.0 260:151.0 270:272.0 284:321.0 312:215.0 525:206.0 534:955.0 647:145.0 750:225.0 789:179.0 
0.815232471181151 1.0 23:53.0 35:71.0 104:49.0 126:61.0 128:65.0 138:134.0 151:121.0 173:70.0 188:59.0 190:238.0 250:318.0 287:153.0 341:172.0 342:334.0 389:106.0 410:184.0 447:344.0 473:158.0 475:134.0 520:117.0 568:85.0 569:300.0 741:306.0 744:214.0 763:159.0 816:184.0 888:150.0 
0.8152324711687519 1.0 18:21.0 22:28.0 47:34.0 70:120.0 86:50.0 90:31.0 96:69.0 105:45.0 119:26.0 126:24.0 128:51.0 188:23.0 190:31.0 206:59.0 207:52.0 217:40.0 264:75.0 285:40.0 289:72.0 342:65.0 348:46.0 398:52.0 410:18.0 441:39.0 446:67.0 473:62.0 475:52.0 519:78.0 535:51.0 536:50.0 560:50.0 595:69.0 604:47.0 608:49.0 625:33.0 636:44.0 637:46.0 646:90.0 739:49.0 744:84.0 860:79.0 887:59.0 942:42.0 955:54.0 
0.8150766112232287 1.0 88:287.0 129:174.0 206:125.0 280:335.0 314:367.0 348:195.0 404:506.0 534:225.0 863:404.0 
0.8146619864722087 1.0 16:171.0 164:138.0 206:94.0 253:291.0 347:188.0 395:1623.0 626:246.0 880:239.0 897:341.0 
0.8152296961869087 1.0 4:735.0 18:590.0 23:868.0 26:545.0 102:288.0 288:1196.0 891:464.0 
0.8152296961869087 1.0 52:794.0 102:309.0 
0.8152928463874174 1.0 11:163.0 31:190.0 43:88.0 66:224.0 74:94.0 88:108.0 93:132.0 104:372.0 118:102.0 128:82.0 138:169.0 140:74.0 188:225.0 204:331.0 205:89.0 207:83.0 225:136.0 257:77.0 332:149.0 383:109.0 410:116.0 425:121.0 519:374.0 520:148.0 568:216.0 628:152.0 631:100.0 863:152.0 917:107.0 
0.8152874117986018 1.0 4:36.0 11:52.0 74:122.0 86:52.0 102:86.0 104:40.0 105:140.0 118:66.0 128:53.0 129:128.0 130:94.0 138:54.0 164:45.0 204:107.0 284:55.0 410:37.0 441:81.0 453:62.0 550:282.0 552:99.0 568:70.0 628:98.0 647:50.0 748:79.0 883:109.0 920:130.0 
-1.0 1.0 1:497.0 3:382.0 4:352.0 256:829.0 284:532.0 911:1276.0 
-1.0 1.0 13:461.0 72:829.0 182:1247.0 415:1276.0 483:844.0 632:1467.0 637:923.0 
-1.0 1.0 17:210.0 20:136.0 27:289.0 28:324.0 34:260.0 59:183.0 66:429.0 104:119.0 112:210.0 129:252.0 139:284.0 198:291.0 206:362.0 208:317.0 209:102.0 274:336.0 292:255.0 329:170.0 347:181.0 423:117.0 430:174.0 473:191.0 562:181.0 566:225.0 642:226.0 659:369.0 772:255.0 865:173.0 
-1.0 1.0 18:370.0 63:879.0 203:1298.0 267:929.0 715:1213.0 
-1.0 1.0 13:161.0 37:619.0 63:706.0 75:326.0 203:1042.0 206:102.0 237:388.0 431:382.0 694:506.0 784:420.0 796:975.0 800:471.0 935:856.0 
-1.0 1.0 243:1750.0 271:181.0 301:635.0 999:367.0 
-1.0 1.0 13:382.0 15:1130.0 50:613.0 751:747.0 
-1.0 1.0 5:145.0 8:79.0 13:58.0 20:55.0 28:199.0 43:207.0 106:75.0 113:144.0 128:64.0 136:283.0 206:37.0 207:130.0 228:1303.0 248:142.0 257:60.0 261:108.0 267:404.0 269:276.0 277:140.0 312:90.0 366:170.0 374:340.0 480:91.0 524:247.0 530:146.0 534:1804.0 588:165.0 607:130.0 655:90.0 721:682.0 789:75.0 865:213.0 893:142.0 
-1.0 1.0 9:1613.0 
-1.0 1.0 17:78.0 20:50.0 27:108.0 28:121.0 34:97.0 59:342.0 66:160.0 94:110.0 98:97.0 104:88.0 107:117.0 108:117.0 119:242.0 126:166.0 129:47.0 133:115.0 138:303.0 140:53.0 148:98.0 153:113.0 164:49.0 173:63.0 192:116.0 198:108.0 205:64.0 206:101.0 208:118.0 209:38.0 271:86.0 274:125.0 306:101.0 329:63.0 347:67.0 410:208.0 423:43.0 430:65.0 439:108.0 473:71.0 545:101.0 625:76.0 642:84.0 659:138.0 728:107.0 737:86.0 767:236.0 772:95.0 865:64.0 880:86.0 890:100.0 917:77.0 
-1.0 1.0 1:218.0 2:541.0 3:399.0 4:155.0 5:63.0 9:451.0 12:76.0 13:25.0 18:46.0 20:24.0 22:31.0 23:22.0 28:28.0 32:33.0 35:30.0 38:34.0 39:46.0 70:43.0 86:55.0 90:34.0 92:59.0 95:56.0 102:22.0 105:49.0 106:32.0 128:56.0 129:22.0 136:41.0 137:34.0 140:25.0 164:23.0 182:68.0 188:128.0 195:107.0 208:56.0 217:44.0 223:38.0 228:56.0 257:26.0 260:27.0 264:41.0 279:67.0 288:47.0 292:45.0 307:99.0 323:137.0 329:30.0 384:32.0 410:19.0 414:74.0 427:38.0 441:42.0 522:89.0 525:37.0 534:58.0 562:64.0 644:53.0 789:98.0 806:76.0 880:41.0 917:36.0 952:51.0 
-1.0 1.0 12:1510.0 348:986.0 395:1215.0 881:1668.0 
-1.0 1.0 20:1393.0 35:885.0 97:844.0 223:1099.0 862:1680.0 879:1797.0 
-1.0 1.0 209:469.0 347:832.0 
-1.0 1.0 10:2002.0 51:640.0 72:694.0 87:1624.0 257:401.0 
-1.0 1.0 17:229.0 20:148.0 34:567.0 59:199.0 66:234.0 97:179.0 98:567.0 129:275.0 137:208.0 206:98.0 209:111.0 257:161.0 347:197.0 440:338.0 479:268.0 
-1.0 1.0 4:80.0 14:402.0 24:723.0 28:120.0 50:508.0 68:241.0 72:190.0 75:426.0 81:1372.0 129:281.0 140:106.0 150:331.0 158:231.0 179:571.0 206:67.0 234:584.0 236:292.0 243:183.0 248:257.0 257:109.0 270:103.0 271:171.0 283:616.0 301:299.0 305:924.0 381:269.0 499:318.0 644:222.0 867:426.0 999:347.0 
-1.0 1.0 3:103.0 4:95.0 10:215.0 17:184.0 20:119.0 32:166.0 59:320.0 62:277.0 66:188.0 98:455.0 129:220.0 167:138.0 206:158.0 209:89.0 257:129.0 347:158.0 427:188.0 479:430.0 
-1.0 1.0 24:2878.0 129:372.0 142:2077.0 260:457.0 314:784.0 636:805.0 
-1.0 1.0 13:378.0 15:745.0 20:362.0 142:1869.0 316:782.0 386:908.0 423:311.0 
-1.0 1.0 12:224.0 17:218.0 20:141.0 27:300.0 28:337.0 34:270.0 59:190.0 66:446.0 104:123.0 112:218.0 129:262.0 139:295.0 206:282.0 209:106.0 292:265.0 308:719.0 329:176.0 347:188.0 423:121.0 430:181.0 473:199.0 562:188.0 566:234.0 642:235.0 772:265.0 865:180.0 
-1.0 1.0 5:332.0 9:431.0 12:404.0 97:927.0 217:465.0 865:325.0 
-1.0 1.0 3:81.0 4:74.0 17:145.0 20:93.0 32:130.0 34:358.0 48:121.0 59:126.0 66:148.0 97:113.0 99:229.0 104:82.0 137:131.0 140:98.0 167:109.0 206:62.0 209:70.0 223:148.0 292:704.0 347:125.0 427:148.0 440:214.0 479:169.0 885:154.0 891:141.0 
-1.0 1.0 4:80.0 6:66.0 11:57.0 16:61.0 20:50.0 22:131.0 28:60.0 31:67.0 47:78.0 61:156.0 71:174.0 115:104.0 129:46.0 145:77.0 186:68.0 209:37.0 218:169.0 246:87.0 260:57.0 280:89.0 383:544.0 395:1286.0 430:64.0 448:138.0 562:67.0 563:84.0 642:167.0 770:124.0 785:145.0 865:128.0 942:97.0 
-1.0 1.0 19:219.0 58:480.0 203:175.0 395:1592.0 683:340.0 885:1885.0 
-1.0 1.0 12:1335.0 209:316.0 334:678.0 
-1.0 1.0 1:178.0 4:761.0 9:537.0 13:166.0 18:152.0 25:332.0 36:317.0 38:225.0 112:245.0 126:173.0 261:307.0 280:282.0 448:217.0 567:862.0 
-1.0 1.0 17:451.0 526:792.0 881:2045.0 
-1.0 1.0 3:234.0 4:431.0 20:270.0 167:629.0 206:359.0 591:801.0 917:410.0 
-1.0 1.0 329:419.0 
-1.0 1.0 1:190.0 3:146.0 11:194.0 18:162.0 28:201.0 31:227.0 32:708.0 86:192.0 96:263.0 104:591.0 138:403.0 164:165.0 167:197.0 173:636.0 206:112.0 209:127.0 260:192.0 325:478.0 328:356.0 404:227.0 441:299.0 566:279.0 631:238.0 647:184.0 
-1.0 1.0 17:78.0 20:50.0 27:107.0 28:120.0 34:96.0 59:339.0 66:159.0 94:109.0 98:96.0 104:88.0 107:116.0 108:116.0 119:240.0 126:165.0 129:46.0 133:114.0 138:300.0 140:53.0 148:97.0 153:112.0 164:49.0 173:63.0 192:115.0 198:108.0 205:63.0 206:100.0 208:117.0 209:37.0 271:85.0 274:124.0 306:100.0 309:112.0 329:63.0 347:67.0 410:206.0 423:43.0 430:64.0 439:108.0 473:71.0 545:100.0 625:75.0 659:136.0 728:106.0 737:86.0 767:234.0 772:94.0 865:64.0 880:85.0 890:99.0 917:76.0 
-0.6022315454356386 0.6201566328217987 12:158.0 17:77.0 20:49.0 27:105.0 28:119.0 34:95.0 59:335.0 66:157.0 94:108.0 98:95.0 104:87.0 107:115.0 108:115.0 112:77.0 119:237.0 126:163.0 129:92.0 133:112.0 138:297.0 140:52.0 148:96.0 153:111.0 154:111.0 156:123.0 164:48.0 173:62.0 192:113.0 198:106.0 205:63.0 206:99.0 209:37.0 271:84.0 329:62.0 347:66.0 379:106.0 410:204.0 423:42.0 430:63.0 439:106.0 473:70.0 545:99.0 625:75.0 642:82.0 728:105.0 737:85.0 767:231.0 772:93.0 865:63.0 880:84.0 890:98.0 917:75.0 
-1.0 1.0 12:80.0 17:78.0 20:50.0 27:107.0 28:120.0 34:96.0 59:340.0 66:159.0 94:110.0 98:96.0 104:88.0 107:116.0 108:116.0 112:78.0 119:240.0 126:165.0 129:140.0 133:114.0 138:301.0 140:53.0 148:97.0 153:113.0 154:113.0 156:125.0 164:49.0 173:63.0 192:115.0 205:63.0 206:100.0 209:38.0 271:85.0 308:128.0 309:113.0 329:63.0 347:67.0 410:206.0 423:43.0 430:64.0 439:108.0 473:71.0 545:101.0 625:76.0 728:106.0 737:86.0 767:234.0 772:95.0 865:64.0 880:85.0 890:99.0 917:76.0 
-1.0 1.0 20:862.0 379:1847.0 
-1.0 1.0 1:106.0 2:116.0 3:245.0 12:299.0 18:90.0 28:112.0 43:116.0 59:253.0 72:177.0 86:107.0 104:82.0 123:217.0 164:369.0 167:109.0 186:127.0 188:99.0 206:62.0 269:233.0 284:227.0 441:166.0 483:180.0 533:224.0 557:512.0 585:279.0 647:205.0 732:171.0 750:159.0 919:179.0 
-1.0 1.0 13:282.0 15:974.0 24:161.0 37:135.0 48:87.0 50:679.0 67:261.0 81:611.0 102:63.0 129:62.0 132:149.0 142:174.0 206:134.0 224:315.0 228:157.0 243:122.0 404:90.0 420:195.0 423:174.0 512:200.0 631:190.0 654:121.0 789:181.0 881:118.0 912:186.0 
-1.0 1.0 3:157.0 4:145.0 13:285.0 50:305.0 72:170.0 91:451.0 106:123.0 132:403.0 179:771.0 197:234.0 206:60.0 222:176.0 226:424.0 243:826.0 270:186.0 283:923.0 289:98.0 365:277.0 390:462.0 395:116.0 443:251.0 632:302.0 685:297.0 720:155.0 789:122.0 795:277.0 
-1.0 1.0 13:652.0 15:1286.0 142:1611.0 224:1455.0 366:1903.0 
-1.0 1.0 1:1569.0 4:1112.0 
-1.0 1.0 1:187.0 2:205.0 4:132.0 8:236.0 18:638.0 20:166.0 25:694.0 28:792.0 35:422.0 91:274.0 106:225.0 128:193.0 136:1124.0 140:174.0 164:325.0 205:210.0 270:170.0 312:268.0 397:365.0 417:480.0 534:198.0 794:506.0 
-1.0 1.0 1:82.0 3:63.0 4:58.0 5:285.0 6:96.0 9:617.0 18:70.0 28:435.0 32:101.0 43:271.0 64:178.0 86:82.0 87:160.0 106:99.0 140:76.0 188:154.0 205:92.0 206:97.0 209:54.0 217:133.0 225:140.0 228:340.0 256:137.0 257:158.0 270:149.0 279:202.0 284:176.0 307:149.0 429:106.0 542:188.0 562:97.0 631:102.0 706:238.0 751:149.0 767:112.0 927:118.0 
-1.0 1.0 158:2432.0 
-1.0 1.0 1:420.0 3:323.0 4:298.0 9:315.0 270:382.0 292:350.0 
-1.0 1.0 21:1358.0 206:523.0 248:2002.0 473:1109.0 
-1.0 1.0 13:363.0 63:795.0 67:674.0 132:772.0 144:803.0 150:1139.0 203:1173.0 480:568.0 679:1139.0 796:1096.0 897:840.0 
-1.0 1.0 72:2218.0 
-1.0 1.0 13:123.0 48:152.0 90:170.0 102:111.0 119:140.0 164:115.0 203:199.0 206:314.0 247:260.0 296:300.0 404:317.0 430:151.0 448:162.0 632:196.0 789:318.0 
-0.0 1.0 
-1.0 1.0 18:96.0 35:255.0 51:348.0 87:221.0 129:93.0 172:242.0 260:114.0 270:411.0 423:86.0 429:438.0 781:290.0 885:331.0 
-1.0 1.0 573:1178.0 870:2692.0 
-1.0 1.0 10:827.0 16:278.0 55:393.0 137:965.0 209:344.0 485:1443.0 626:399.0 
-1.0 1.0 3:100.0 4:92.0 17:179.0 20:116.0 32:161.0 34:443.0 48:149.0 51:201.0 59:312.0 66:183.0 99:142.0 137:162.0 167:135.0 206:77.0 209:87.0 223:183.0 347:154.0 427:184.0 440:265.0 479:209.0 885:191.0 
-1.0 1.0 5:119.0 9:77.0 10:82.0 12:362.0 15:188.0 16:166.0 18:87.0 28:54.0 39:86.0 50:153.0 51:317.0 81:103.0 137:64.0 167:106.0 206:30.0 209:103.0 288:89.0 347:60.0 384:60.0 395:58.0 422:97.0 423:117.0 526:124.0 568:69.0 570:106.0 605:106.0 862:110.0 988:156.0 
-1.0 1.0 20:92.0 97:112.0 206:61.0 316:199.0 348:95.0 383:142.0 453:249.0 477:215.0 730:364.0 761:395.0 789:124.0 878:399.0 
-1.0 1.0 43:380.0 51:532.0 392:804.0 453:414.0 562:408.0 
-1.0 1.0 12:2208.0 
-1.0 1.0 2:115.0 3:80.0 4:149.0 8:132.0 22:121.0 28:111.0 32:130.0 128:216.0 164:91.0 166:122.0 167:217.0 195:621.0 199:390.0 206:62.0 208:217.0 257:202.0 284:112.0 389:176.0 401:516.0 404:125.0 416:269.0 666:305.0 917:283.0 942:179.0 984:320.0 
-1.0 1.0 1:249.0 2:91.0 3:256.0 4:59.0 8:210.0 11:84.0 18:71.0 20:221.0 28:176.0 32:206.0 35:93.0 38:209.0 47:114.0 72:138.0 105:149.0 138:88.0 144:170.0 145:227.0 186:200.0 188:78.0 195:327.0 205:93.0 206:49.0 300:219.0 329:369.0 355:170.0 410:60.0 427:234.0 437:387.0 473:104.0 519:130.0 562:294.0 627:134.0 631:104.0 642:122.0 750:125.0 751:151.0 767:228.0 
-1.0 1.0 10:545.0 13:630.0 15:621.0 24:719.0 37:604.0 68:719.0 81:1364.0 89:791.0 129:559.0 224:703.0 232:872.0 234:872.0 236:1744.0 243:547.0 299:894.0 302:894.0 396:631.0 423:259.0 604:646.0 
-1.0 1.0 12:206.0 97:1421.0 265:294.0 292:244.0 391:341.0 422:279.0 524:289.0 903:244.0 909:341.0 927:210.0 
-0.7992361357392673 0.8232826722938115 51:896.0 
-1.0 1.0 17:1037.0 209:504.0 
-1.0 1.0 3:356.0 4:657.0 32:1148.0 48:531.0 479:743.0 
-0.7995337853506438 0.8231911392317091 51:923.0 
-1.0 1.0 1:495.0 4:105.0 5:57.0 9:223.0 12:209.0 18:42.0 20:87.0 22:57.0 23:41.0 31:176.0 32:61.0 35:111.0 43:217.0 60:72.0 74:58.0 82:84.0 86:49.0 90:126.0 91:72.0 96:137.0 101:93.0 128:153.0 136:74.0 140:92.0 145:67.0 164:215.0 166:57.0 167:51.0 188:93.0 203:74.0 205:166.0 206:146.0 207:154.0 209:33.0 217:160.0 228:102.0 237:110.0 279:486.0 284:105.0 363:134.0 384:58.0 430:56.0 519:77.0 562:233.0 631:61.0 647:143.0 706:143.0 751:179.0 789:59.0 
-1.0 1.0 5:596.0 13:239.0 102:215.0 136:387.0 158:523.0 348:237.0 423:394.0 801:2096.0 
-1.0 1.0 1:227.0 2:406.0 3:153.0 4:302.0 5:32.0 8:71.0 14:50.0 18:72.0 31:33.0 35:256.0 39:48.0 43:31.0 53:112.0 60:41.0 64:61.0 75:106.0 103:60.0 119:30.0 129:46.0 164:49.0 166:66.0 172:60.0 183:54.0 186:68.0 199:158.0 203:255.0 209:76.0 213:68.0 221:100.0 233:145.0 237:63.0 239:364.0 256:237.0 265:57.0 303:74.0 313:115.0 326:142.0 329:31.0 360:77.0 384:133.0 389:47.0 420:72.0 512:74.0 523:65.0 525:39.0 626:43.0 636:50.0 642:167.0 663:247.0 670:82.0 691:82.0 694:82.0 695:82.0 711:79.0 798:79.0 865:32.0 867:53.0 893:64.0 917:38.0 
-1.0 1.0 3:67.0 4:62.0 10:141.0 17:121.0 20:78.0 48:101.0 59:105.0 62:182.0 66:123.0 99:96.0 167:91.0 206:52.0 209:58.0 223:123.0 253:161.0 260:89.0 347:104.0 395:99.0 427:124.0 453:105.0 479:283.0 586:226.0 767:121.0 782:569.0 
-1.0 1.0 12:434.0 17:212.0 20:137.0 28:327.0 34:262.0 59:184.0 66:433.0 73:238.0 119:163.0 140:144.0 154:307.0 156:339.0 195:304.0 206:182.0 209:103.0 306:274.0 308:348.0 347:182.0 423:117.0 430:175.0 473:193.0 642:227.0 865:174.0 875:327.0 
-1.0 1.0 48:329.0 102:239.0 206:169.0 209:191.0 221:506.0 246:444.0 317:571.0 400:601.0 526:692.0 881:1785.0 
-1.0 1.0 526:1404.0 881:905.0 
-1.0 1.0 1:174.0 2:575.0 3:268.0 4:247.0 5:201.0 18:148.0 32:431.0 37:619.0 43:191.0 60:256.0 102:145.0 206:102.0 237:388.0 246:269.0 260:704.0 284:186.0 423:133.0 453:209.0 533:369.0 
-1.0 1.0 3:386.0 9:502.0 86:168.0 256:278.0 410:121.0 432:346.0 479:536.0 603:274.0 684:485.0 704:485.0 885:244.0 934:734.0 
-1.0 1.0 1:501.0 3:128.0 4:118.0 5:386.0 32:207.0 37:297.0 98:283.0 104:129.0 129:275.0 148:287.0 205:187.0 237:372.0 256:278.0 260:675.0 423:255.0 631:209.0 992:509.0 
-1.0 1.0 1:536.0 3:826.0 9:3226.0 48:614.0 167:555.0 289:517.0 
-1.0 1.0 4:194.0 9:205.0 12:385.0 16:295.0 17:752.0 75:256.0 82:233.0 99:148.0 125:336.0 164:118.0 270:124.0 421:218.0 789:327.0 868:262.0 881:638.0 
-1.0 1.0 1:64.0 12:363.0 16:69.0 18:55.0 51:297.0 87:251.0 104:50.0 105:58.0 117:135.0 188:60.0 209:172.0 270:58.0 281:104.0 308:145.0 395:73.0 410:93.0 528:150.0 591:169.0 767:266.0 776:165.0 880:96.0 890:113.0 917:86.0 
-1.0 1.0 3:108.0 4:99.0 10:225.0 17:193.0 32:174.0 62:291.0 98:477.0 129:231.0 167:145.0 206:83.0 209:93.0 257:135.0 347:166.0 427:197.0 479:225.0 
-1.0 1.0 17:301.0 20:194.0 27:413.0 28:464.0 34:372.0 59:262.0 66:922.0 112:301.0 129:180.0 198:417.0 206:388.0 208:453.0 209:146.0 274:481.0 309:436.0 347:259.0 423:167.0 430:249.0 656:528.0 659:528.0 865:248.0 927:315.0 
-1.0 1.0 3:74.0 4:137.0 80:146.0 97:209.0 106:117.0 167:200.0 206:114.0 260:196.0 540:216.0 632:143.0 865:219.0 881:2113.0 885:568.0 897:208.0 930:262.0 
-1.0 1.0 289:252.0 789:1250.0 881:1625.0 
-1.0 1.0 2:150.0 4:32.0 35:256.0 47:125.0 67:78.0 94:88.0 103:97.0 105:81.0 122:153.0 138:48.0 140:85.0 144:93.0 164:39.0 166:52.0 173:50.0 186:54.0 207:141.0 209:60.0 270:82.0 384:267.0 396:253.0 410:595.0 433:85.0 480:131.0 531:107.0 570:94.0 655:65.0 707:132.0 720:138.0 
-1.0 1.0 13:901.0 15:888.0 270:441.0 423:370.0 632:1432.0 
-0.4352153106572022 1.0 
-1.0 1.0 1:131.0 2:289.0 5:152.0 9:197.0 13:122.0 18:112.0 22:152.0 31:156.0 43:144.0 72:219.0 96:182.0 102:109.0 140:122.0 145:180.0 164:114.0 206:77.0 257:126.0 363:356.0 404:156.0 706:764.0 891:353.0 917:177.0 
-1.0 1.0 1:209.0 2:269.0 3:268.0 4:24.0 5:40.0 18:119.0 22:40.0 23:116.0 26:55.0 28:110.0 31:41.0 32:129.0 36:62.0 38:87.0 39:58.0 54:60.0 59:125.0 71:53.0 72:58.0 86:35.0 90:44.0 99:38.0 102:29.0 104:81.0 105:31.0 128:36.0 137:43.0 140:32.0 144:143.0 164:60.0 167:72.0 173:155.0 183:66.0 186:42.0 188:32.0 208:72.0 209:46.0 235:89.0 257:33.0 260:176.0 270:31.0 284:112.0 292:349.0 311:54.0 325:87.0 329:38.0 384:82.0 390:78.0 404:41.0 410:76.0 430:39.0 441:54.0 523:80.0 525:48.0 534:37.0 563:51.0 566:102.0 631:43.0 642:51.0 647:135.0 654:222.0 721:75.0 729:68.0 777:91.0 789:41.0 993:106.0 
-1.0 1.0 1:313.0 4:222.0 8:396.0 9:471.0 38:395.0 42:612.0 92:680.0 103:672.0 144:642.0 193:698.0 230:730.0 257:302.0 429:404.0 430:357.0 452:596.0 483:532.0 749:557.0 865:355.0 954:623.0 
-0.028361586114997672 0.0 17:1474.0 540:2389.0 
-1.0 1.0 11:137.0 13:501.0 15:247.0 20:119.0 28:143.0 50:201.0 70:216.0 73:626.0 91:198.0 97:145.0 125:331.0 129:111.0 158:273.0 174:282.0 226:279.0 264:407.0 284:144.0 288:233.0 316:259.0 369:731.0 386:300.0 423:412.0 429:348.0 448:164.0 480:391.0 680:785.0 948:365.0 
-1.0 1.0 1:135.0 2:178.0 3:41.0 4:172.0 5:93.0 6:31.0 8:34.0 11:27.0 13:25.0 18:92.0 33:235.0 35:305.0 36:48.0 53:213.0 69:114.0 85:58.0 91:39.0 103:58.0 119:28.0 128:27.0 145:111.0 166:31.0 170:58.0 183:571.0 186:162.0 199:201.0 205:30.0 223:37.0 265:54.0 270:24.0 311:42.0 312:155.0 314:93.0 348:24.0 384:350.0 410:78.0 429:104.0 453:64.0 470:108.0 523:62.0 527:189.0 528:189.0 552:51.0 562:31.0 577:66.0 653:61.0 655:39.0 719:53.0 865:92.0 974:73.0 
-1.0 1.0 4:42.0 5:207.0 11:61.0 18:51.0 20:265.0 23:50.0 28:63.0 38:150.0 86:60.0 91:87.0 101:112.0 104:92.0 106:72.0 128:61.0 136:89.0 138:126.0 140:111.0 147:113.0 166:69.0 167:61.0 183:114.0 186:359.0 188:56.0 206:35.0 209:399.0 277:266.0 281:96.0 311:93.0 318:106.0 489:167.0 525:82.0 534:127.0 631:74.0 647:57.0 750:89.0 767:82.0 
-1.0 1.0 1:177.0 2:195.0 3:136.0 4:63.0 8:112.0 12:62.0 18:37.0 20:39.0 35:501.0 36:78.0 38:55.0 39:74.0 42:86.0 43:48.0 53:262.0 63:90.0 67:76.0 86:44.0 91:65.0 101:83.0 173:98.0 183:85.0 186:320.0 188:41.0 195:87.0 199:82.0 205:49.0 206:78.0 221:156.0 223:124.0 231:88.0 238:114.0 257:171.0 260:44.0 265:89.0 273:109.0 289:42.0 323:111.0 384:156.0 388:100.0 410:96.0 412:114.0 414:120.0 415:114.0 428:109.0 432:183.0 433:83.0 505:124.0 511:124.0 562:52.0 637:82.0 684:387.0 719:87.0 732:71.0 737:134.0 751:80.0 760:64.0 860:70.0 892:97.0 919:74.0 981:135.0 995:135.0 
-1.0 1.0 13:223.0 50:359.0 75:225.0 91:177.0 96:167.0 179:605.0 190:150.0 226:249.0 257:116.0 267:258.0 270:109.0 283:1087.0 448:294.0 745:317.0 990:367.0 
-1.0 1.0 1:77.0 3:119.0 4:276.0 9:467.0 106:93.0 129:320.0 206:91.0 271:116.0 404:92.0 412:199.0 421:124.0 443:191.0 448:94.0 473:97.0 770:170.0 776:199.0 789:93.0 881:120.0 
-1.0 1.0 2:554.0 3:193.0 4:357.0 5:291.0 12:354.0 36:447.0 166:292.0 172:539.0 209:168.0 222:865.0 228:1042.0 253:460.0 429:324.0 
-1.0 1.0 1:43.0 2:79.0 3:22.0 4:71.0 5:199.0 11:29.0 18:134.0 20:319.0 23:36.0 25:186.0 28:60.0 33:25.0 35:32.0 36:25.0 37:51.0 38:36.0 43:158.0 48:65.0 50:21.0 61:19.0 80:21.0 81:86.0 86:86.0 88:58.0 89:100.0 91:84.0 96:19.0 99:15.0 104:89.0 106:259.0 109:30.0 118:55.0 120:30.0 124:34.0 126:139.0 128:59.0 136:129.0 140:53.0 152:28.0 164:87.0 166:50.0 183:27.0 186:17.0 188:54.0 190:17.0 206:76.0 209:67.0 213:34.0 214:34.0 216:34.0 221:25.0 241:31.0 246:44.0 260:87.0 267:61.0 276:35.0 281:46.0 284:61.0 288:49.0 290:61.0 305:58.0 307:78.0 312:20.0 316:27.0 317:114.0 318:25.0 325:72.0 336:36.0 348:26.0 359:87.0 364:77.0 388:32.0 390:32.0 404:34.0 418:36.0 429:37.0 430:16.0 431:31.0 441:45.0 445:35.0 479:69.0 520:26.0 534:91.0 541:35.0 542:32.0 565:34.0 571:34.0 586:73.0 608:28.0 627:23.0 641:29.0 647:55.0 652:34.0 664:208.0 690:41.0 704:41.0 737:65.0 750:21.0 756:35.0 782:23.0 788:227.0 789:51.0 863:27.0 865:16.0 866:34.0 867:26.0 879:32.0 917:19.0 919:48.0 934:31.0 942:49.0 
-1.0 1.0 2:1199.0 3:59.0 4:386.0 18:66.0 25:289.0 72:129.0 96:107.0 103:166.0 106:93.0 128:80.0 164:67.0 167:80.0 173:86.0 205:87.0 206:91.0 209:52.0 222:133.0 257:75.0 261:133.0 329:86.0 334:111.0 395:88.0 400:162.0 410:56.0 430:88.0 444:191.0 495:226.0 562:275.0 581:204.0 603:127.0 632:229.0 732:125.0 777:614.0 867:145.0 881:120.0 
-1.0 1.0 15:540.0 35:333.0 126:287.0 152:1780.0 305:599.0 381:699.0 423:225.0 532:699.0 
-1.0 1.0 1:159.0 2:17.0 3:12.0 4:101.0 5:165.0 8:20.0 9:23.0 13:14.0 18:163.0 20:438.0 23:53.0 25:354.0 28:67.0 29:127.0 32:59.0 33:55.0 35:17.0 38:220.0 43:17.0 48:18.0 49:393.0 56:24.0 85:102.0 86:80.0 88:21.0 92:34.0 96:22.0 101:90.0 104:86.0 105:14.0 106:38.0 112:43.0 126:61.0 128:32.0 136:119.0 140:14.0 152:31.0 164:41.0 166:55.0 167:16.0 188:29.0 189:23.0 203:23.0 205:71.0 206:93.0 209:74.0 228:32.0 235:122.0 260:112.0 270:14.0 281:25.0 284:136.0 288:82.0 289:15.0 290:22.0 309:31.0 325:39.0 348:43.0 404:18.0 410:11.0 423:24.0 425:72.0 430:18.0 431:69.0 433:30.0 441:24.0 453:19.0 534:135.0 627:25.0 631:39.0 647:138.0 668:46.0 671:46.0 732:25.0 784:38.0 788:143.0 789:19.0 861:35.0 865:18.0 866:38.0 867:29.0 891:21.0 897:34.0 917:21.0 927:22.0 
-1.0 1.0 10:883.0 51:1131.0 75:343.0 188:172.0 257:177.0 383:754.0 448:447.0 732:296.0 
-1.0 1.0 10:1282.0 51:1846.0 87:1561.0 391:931.0 423:305.0 448:487.0 
-1.0 1.0 35:166.0 51:227.0 137:184.0 140:138.0 209:296.0 257:284.0 270:134.0 526:356.0 607:305.0 730:259.0 786:379.0 880:222.0 881:229.0 
-1.0 1.0 13:174.0 24:297.0 50:69.0 105:42.0 132:277.0 189:69.0 243:75.0 257:45.0 264:141.0 289:45.0 316:89.0 373:131.0 404:111.0 413:120.0 423:179.0 532:110.0 550:85.0 625:62.0 632:69.0 647:45.0 723:96.0 727:105.0 803:126.0 863:178.0 891:62.0 927:336.0 990:142.0 
-1.0 1.0 2:20.0 4:26.0 5:129.0 11:18.0 13:17.0 18:142.0 20:247.0 23:15.0 25:207.0 28:78.0 33:32.0 35:21.0 36:33.0 37:66.0 38:23.0 43:163.0 48:42.0 50:27.0 71:28.0 80:28.0 81:112.0 86:112.0 88:75.0 89:129.0 91:109.0 104:115.0 106:89.0 109:38.0 118:71.0 120:39.0 124:44.0 126:180.0 128:57.0 129:15.0 136:195.0 140:69.0 152:37.0 155:42.0 157:40.0 164:64.0 183:35.0 186:22.0 188:17.0 190:23.0 206:10.0 209:12.0 213:44.0 214:44.0 216:44.0 221:32.0 246:57.0 260:18.0 267:79.0 270:33.0 281:30.0 284:59.0 288:32.0 290:26.0 305:75.0 307:101.0 311:29.0 312:26.0 316:35.0 317:73.0 336:47.0 348:51.0 359:56.0 364:50.0 388:42.0 390:42.0 397:36.0 418:47.0 429:24.0 431:40.0 441:58.0 445:45.0 479:89.0 534:59.0 541:45.0 542:42.0 565:44.0 571:44.0 586:47.0 641:38.0 647:72.0 652:44.0 664:270.0 704:54.0 737:56.0 750:27.0 782:29.0 788:294.0 789:22.0 797:54.0 866:44.0 867:34.0 879:42.0 917:25.0 919:31.0 942:63.0 
-1.0 1.0 2:2805.0 3:490.0 4:1356.0 38:802.0 392:1483.0 527:1483.0 581:1677.0 
-1.0 1.0 1:94.0 2:311.0 3:254.0 4:502.0 5:54.0 13:131.0 18:120.0 22:54.0 48:108.0 49:73.0 60:69.0 71:72.0 104:36.0 117:98.0 121:243.0 122:159.0 129:77.0 164:41.0 195:92.0 209:63.0 228:390.0 246:146.0 256:78.0 257:45.0 270:42.0 289:45.0 356:329.0 423:72.0 539:213.0 577:115.0 589:127.0 726:97.0 883:99.0 
-1.0 1.0 20:143.0 35:182.0 50:481.0 106:195.0 123:331.0 209:216.0 243:260.0 246:250.0 283:583.0 305:328.0 404:192.0 473:202.0 1000:493.0 
-1.0 1.0 3:125.0 4:23.0 5:37.0 13:424.0 32:161.0 35:36.0 36:58.0 39:55.0 43:35.0 48:37.0 50:145.0 54:56.0 56:50.0 61:44.0 75:122.0 104:25.0 120:69.0 126:31.0 129:53.0 140:305.0 164:28.0 181:351.0 206:38.0 260:66.0 301:172.0 325:81.0 392:228.0 396:60.0 423:49.0 534:69.0 631:40.0 711:91.0 775:83.0 875:207.0 892:71.0 908:66.0 
-1.0 1.0 1:90.0 4:63.0 5:104.0 23:37.0 35:101.0 38:113.0 39:75.0 53:88.0 69:95.0 75:84.0 95:92.0 144:276.0 180:112.0 183:172.0 186:162.0 187:79.0 209:30.0 229:209.0 230:104.0 246:487.0 247:87.0 257:86.0 265:90.0 271:67.0 289:43.0 301:118.0 322:112.0 347:53.0 369:121.0 383:184.0 389:75.0 410:163.0 413:115.0 432:93.0 453:53.0 473:168.0 480:65.0 531:106.0 579:236.0 583:118.0 592:101.0 637:83.0 662:101.0 732:72.0 758:76.0 861:100.0 863:85.0 880:67.0 986:137.0 987:137.0 
-1.0 1.0 1:28.0 2:123.0 3:107.0 4:19.0 18:47.0 23:23.0 35:253.0 53:165.0 54:48.0 69:178.0 70:44.0 80:42.0 96:38.0 101:52.0 119:29.0 141:65.0 151:53.0 164:24.0 170:240.0 173:93.0 183:376.0 186:202.0 188:26.0 199:104.0 205:94.0 238:71.0 256:46.0 265:56.0 290:40.0 311:44.0 314:48.0 326:70.0 329:31.0 347:33.0 379:53.0 380:58.0 384:198.0 389:47.0 410:183.0 445:137.0 448:34.0 470:168.0 511:78.0 523:128.0 525:38.0 527:65.0 528:65.0 562:33.0 568:37.0 570:58.0 571:135.0 592:63.0 655:80.0 685:81.0 738:58.0 785:71.0 790:75.0 799:75.0 800:75.0 925:60.0 952:52.0 
-1.0 1.0 13:225.0 14:214.0 15:222.0 125:596.0 132:478.0 142:834.0 152:243.0 170:260.0 206:71.0 224:251.0 300:319.0 397:2606.0 425:184.0 470:243.0 480:175.0 556:260.0 
-1.0 1.0 51:326.0 100:350.0 395:240.0 423:162.0 721:460.0 
-1.0 1.0 55:1173.0 97:414.0 164:334.0 730:674.0 761:1463.0 
-1.0 1.0 20:823.0 136:1393.0 166:2155.0 334:1326.0 
-1.0 1.0 20:1045.0 26:619.0 31:467.0 102:326.0 410:284.0 525:3246.0 
-1.0 1.0 136:2553.0 206:1003.0 
-1.0 1.0 1:153.0 3:88.0 4:54.0 14:67.0 20:33.0 24:243.0 37:67.0 48:87.0 50:56.0 68:81.0 105:103.0 129:94.0 132:75.0 142:438.0 180:191.0 203:801.0 209:127.0 213:461.0 221:202.0 229:356.0 237:85.0 239:490.0 247:74.0 257:36.0 279:94.0 286:82.0 288:66.0 303:100.0 304:111.0 313:310.0 420:98.0 425:58.0 480:110.0 647:37.0 663:111.0 669:111.0 695:333.0 784:92.0 893:172.0 996:116.0 
-1.0 1.0 1:75.0 2:414.0 3:405.0 4:160.0 8:95.0 13:69.0 18:128.0 28:79.0 32:186.0 33:131.0 35:424.0 36:267.0 43:82.0 48:86.0 51:115.0 53:148.0 69:159.0 99:81.0 115:277.0 136:113.0 203:225.0 205:168.0 206:177.0 209:50.0 213:181.0 239:386.0 246:232.0 329:167.0 345:155.0 448:91.0 522:122.0 607:155.0 789:179.0 791:203.0 800:203.0 925:161.0 
-1.0 1.0 102:40.0 112:65.0 173:320.0 278:707.0 289:46.0 337:115.0 348:44.0 389:80.0 410:69.0 423:73.0 425:72.0 435:109.0 453:57.0 525:66.0 545:85.0 637:89.0 658:2081.0 
-1.0 1.0 3:66.0 9:64.0 13:120.0 35:340.0 38:54.0 39:72.0 43:47.0 46:94.0 96:59.0 106:208.0 129:70.0 158:174.0 174:180.0 206:50.0 207:44.0 208:89.0 243:417.0 246:66.0 247:84.0 285:69.0 384:50.0 400:270.0 404:462.0 423:32.0 476:97.0 534:45.0 632:699.0 644:84.0 654:343.0 784:207.0 789:103.0 863:82.0 881:67.0 885:63.0 
-1.0 1.0 3:286.0 4:66.0 13:86.0 54:160.0 123:190.0 243:900.0 400:194.0 404:887.0 545:165.0 639:228.0 770:409.0 862:199.0 
-1.0 1.0 14:89.0 39:42.0 46:166.0 50:37.0 54:43.0 67:87.0 120:53.0 126:147.0 157:55.0 158:51.0 173:28.0 174:105.0 189:37.0 214:60.0 215:182.0 273:62.0 278:124.0 327:63.0 337:121.0 348:23.0 368:137.0 410:18.0 418:64.0 423:19.0 425:38.0 429:32.0 444:62.0 476:171.0 480:36.0 484:70.0 486:70.0 490:70.0 493:141.0 498:70.0 500:70.0 501:70.0 502:70.0 506:70.0 507:283.0 508:70.0 509:70.0 514:70.0 515:70.0 568:102.0 570:52.0 572:73.0 604:48.0 626:39.0 637:46.0 652:60.0 658:670.0 672:73.0 673:73.0 688:73.0 692:73.0 703:73.0 713:73.0 714:73.0 716:73.0 729:49.0 749:44.0 805:137.0 807:68.0 808:70.0 809:68.0 906:342.0 915:59.0 939:63.0 
-1.0 1.0 5:83.0 38:363.0 64:156.0 95:147.0 105:129.0 128:74.0 144:295.0 203:107.0 206:212.0 212:610.0 221:127.0 260:145.0 289:138.0 318:128.0 404:85.0 430:82.0 568:97.0 655:312.0 786:184.0 
-1.0 1.0 1:366.0 2:50.0 4:32.0 5:158.0 8:57.0 13:42.0 14:161.0 18:234.0 20:40.0 25:255.0 28:145.0 32:170.0 36:162.0 38:57.0 43:50.0 49:425.0 56:70.0 85:98.0 86:46.0 92:99.0 101:172.0 118:58.0 136:68.0 164:39.0 188:43.0 205:51.0 260:46.0 267:98.0 270:83.0 284:196.0 309:91.0 312:131.0 318:325.0 324:114.0 374:124.0 388:103.0 453:54.0 534:194.0 631:57.0 647:310.0 653:103.0 860:145.0 942:156.0 
-1.0 1.0 1:18.0 3:43.0 5:21.0 12:26.0 13:122.0 14:33.0 15:34.0 18:80.0 24:159.0 37:33.0 38:23.0 48:21.0 50:505.0 51:29.0 56:29.0 68:79.0 80:28.0 81:75.0 87:36.0 91:221.0 99:20.0 105:16.0 123:38.0 125:46.0 126:18.0 129:62.0 142:43.0 179:47.0 188:17.0 195:37.0 203:310.0 206:55.0 209:201.0 213:227.0 224:78.0 226:78.0 232:48.0 236:48.0 237:83.0 260:19.0 264:85.0 283:101.0 293:36.0 299:49.0 305:38.0 346:39.0 390:42.0 393:43.0 421:30.0 423:129.0 448:22.0 473:23.0 532:44.0 607:351.0 655:27.0 698:164.0 722:41.0 758:64.0 784:45.0 865:21.0 867:70.0 878:36.0 882:33.0 906:85.0 911:145.0 975:57.0 
-1.0 1.0 1:154.0 3:118.0 4:328.0 13:716.0 15:847.0 37:274.0 81:930.0 136:232.0 226:319.0 243:498.0 256:772.0 270:140.0 348:284.0 380:639.0 425:234.0 648:293.0 801:1673.0 881:720.0 
-1.0 1.0 1:106.0 2:156.0 3:54.0 4:126.0 5:246.0 11:36.0 13:33.0 18:121.0 20:474.0 23:59.0 25:66.0 35:40.0 38:44.0 43:117.0 48:81.0 61:48.0 71:54.0 96:49.0 99:38.0 106:472.0 128:36.0 129:58.0 155:81.0 157:78.0 164:92.0 166:124.0 167:36.0 188:100.0 206:189.0 209:142.0 241:77.0 260:215.0 270:64.0 276:87.0 281:57.0 284:38.0 288:61.0 289:34.0 290:101.0 311:55.0 317:141.0 318:63.0 325:178.0 348:32.0 359:108.0 364:96.0 397:69.0 404:84.0 429:45.0 430:40.0 520:66.0 534:302.0 586:91.0 608:70.0 627:57.0 647:68.0 690:103.0 737:53.0 756:87.0 789:170.0 797:103.0 863:67.0 919:60.0 934:78.0 
-1.0 1.0 1:112.0 2:247.0 3:86.0 4:719.0 13:941.0 50:503.0 91:165.0 129:185.0 185:182.0 226:699.0 256:187.0 270:204.0 316:216.0 386:501.0 423:344.0 789:134.0 860:357.0 
-1.0 1.0 2:231.0 3:323.0 4:298.0 9:315.0 136:315.0 167:217.0 189:313.0 206:124.0 209:140.0 389:352.0 392:489.0 452:399.0 653:474.0 675:1222.0 760:304.0 789:251.0 917:283.0 976:640.0 
-1.0 1.0 1:1169.0 3:200.0 8:328.0 18:110.0 28:137.0 31:154.0 32:643.0 48:297.0 72:433.0 86:130.0 118:166.0 146:319.0 164:112.0 167:268.0 173:289.0 270:118.0 307:235.0 367:351.0 433:245.0 767:535.0 780:333.0 781:333.0 
-1.0 1.0 1:91.0 4:32.0 13:84.0 18:38.0 23:76.0 39:76.0 43:50.0 48:52.0 124:109.0 164:39.0 174:190.0 197:104.0 209:30.0 260:92.0 261:78.0 267:97.0 270:124.0 307:82.0 312:130.0 397:88.0 412:233.0 423:69.0 533:96.0 534:48.0 548:282.0 643:105.0 
-1.0 1.0 6:41.0 10:454.0 12:99.0 16:267.0 17:48.0 20:62.0 62:73.0 67:60.0 102:88.0 112:48.0 129:145.0 136:53.0 137:308.0 167:36.0 206:20.0 209:23.0 212:224.0 270:64.0 391:82.0 395:240.0 573:77.0 674:102.0 865:200.0 868:67.0 904:88.0 910:90.0 
-1.0 1.0 13:470.0 51:156.0 87:396.0 129:83.0 270:92.0 289:97.0 395:344.0 404:241.0 423:77.0 534:215.0 540:225.0 626:156.0 789:242.0 876:249.0 882:360.0 885:148.0 893:229.0 946:309.0 
-1.0 1.0 2:22.0 3:15.0 9:30.0 18:52.0 22:23.0 35:23.0 56:31.0 61:28.0 82:35.0 88:27.0 99:44.0 104:207.0 105:148.0 106:24.0 119:21.0 122:69.0 127:199.0 140:19.0 166:23.0 182:51.0 183:39.0 195:81.0 206:24.0 207:64.0 209:13.0 218:92.0 243:33.0 260:41.0 261:70.0 284:22.0 285:66.0 286:44.0 288:35.0 293:79.0 307:37.0 317:40.0 389:34.0 404:24.0 410:553.0 429:26.0 473:25.0 480:119.0 555:52.0 566:60.0 568:27.0 625:27.0 627:33.0 628:39.0 631:25.0 632:30.0 646:37.0 647:39.0 740:47.0 748:31.0 750:30.0 751:37.0 767:56.0 789:24.0 860:32.0 868:39.0 891:27.0 892:45.0 905:42.0 924:44.0 
-1.0 1.0 14:85.0 39:41.0 46:160.0 50:36.0 54:41.0 67:83.0 126:165.0 157:53.0 158:49.0 173:27.0 174:101.0 189:36.0 190:91.0 215:117.0 273:59.0 278:119.0 327:60.0 337:117.0 348:44.0 368:131.0 410:17.0 418:62.0 423:18.0 425:36.0 429:31.0 444:59.0 476:109.0 480:35.0 484:67.0 486:67.0 490:67.0 493:135.0 498:67.0 500:67.0 501:67.0 502:67.0 506:67.0 507:271.0 508:67.0 509:67.0 514:67.0 515:67.0 568:98.0 570:50.0 585:63.0 604:46.0 626:37.0 637:45.0 648:46.0 652:58.0 658:585.0 672:70.0 673:70.0 688:70.0 692:70.0 703:70.0 713:70.0 714:70.0 716:70.0 729:47.0 749:43.0 775:62.0 805:131.0 807:65.0 808:67.0 809:65.0 906:329.0 907:48.0 915:57.0 939:60.0 972:74.0 
-1.0 1.0 2:176.0 5:185.0 14:283.0 61:220.0 86:161.0 118:205.0 164:139.0 209:107.0 257:309.0 392:373.0 448:195.0 605:332.0 720:487.0 
-1.0 1.0 15:132.0 24:61.0 43:31.0 46:158.0 47:19.0 67:24.0 68:61.0 94:27.0 106:17.0 126:28.0 144:29.0 152:86.0 179:36.0 185:70.0 207:60.0 214:104.0 224:119.0 226:59.0 236:148.0 248:32.0 257:27.0 264:43.0 271:21.0 305:29.0 316:55.0 333:35.0 383:19.0 386:64.0 400:60.0 423:22.0 431:31.0 521:66.0 532:136.0 570:29.0 585:38.0 592:32.0 603:23.0 637:26.0 643:33.0 658:104.0 717:41.0 749:51.0 786:37.0 868:27.0 
-1.0 1.0 1:70.0 2:154.0 3:35.0 4:33.0 5:54.0 6:27.0 8:59.0 13:43.0 18:79.0 20:103.0 24:49.0 29:93.0 33:162.0 35:79.0 38:58.0 43:25.0 47:32.0 53:46.0 60:34.0 63:94.0 67:40.0 68:49.0 75:43.0 85:100.0 91:34.0 95:47.0 102:38.0 106:28.0 124:112.0 129:19.0 142:53.0 144:47.0 164:20.0 166:27.0 173:51.0 186:28.0 203:698.0 206:96.0 209:62.0 212:49.0 229:108.0 260:47.0 261:40.0 270:21.0 300:61.0 312:67.0 313:47.0 316:179.0 347:27.0 360:63.0 376:67.0 380:48.0 384:27.0 393:108.0 404:27.0 423:17.0 431:205.0 480:67.0 485:65.0 499:261.0 512:61.0 563:34.0 570:48.0 607:338.0 631:29.0 637:43.0 643:54.0 666:67.0 669:67.0 676:67.0 686:135.0 691:67.0 712:67.0 760:33.0 799:63.0 897:50.0 953:46.0 997:71.0 
-1.0 1.0 8:280.0 86:223.0 183:425.0 186:533.0 363:600.0 410:483.0 441:348.0 790:600.0 
-1.0 1.0 2:170.0 3:39.0 4:403.0 6:121.0 8:65.0 13:48.0 18:88.0 32:64.0 33:90.0 35:58.0 53:101.0 102:129.0 103:110.0 124:124.0 141:120.0 170:110.0 173:57.0 186:124.0 188:97.0 199:96.0 231:102.0 257:49.0 284:55.0 312:74.0 363:140.0 384:60.0 415:132.0 430:58.0 470:1143.0 522:168.0 580:136.0 653:116.0 655:224.0 677:300.0 722:115.0 770:227.0 865:58.0 
-1.0 1.0 51:3923.0 69:1349.0 
-1.0 1.0 1:28.0 3:22.0 4:102.0 5:66.0 13:53.0 18:49.0 20:179.0 25:107.0 28:30.0 31:34.0 33:351.0 35:32.0 38:108.0 43:31.0 61:39.0 72:48.0 73:44.0 86:232.0 88:39.0 101:217.0 102:24.0 118:110.0 128:29.0 129:23.0 138:30.0 164:100.0 166:67.0 173:96.0 182:72.0 183:55.0 186:34.0 188:108.0 190:36.0 206:51.0 209:57.0 257:111.0 260:29.0 268:56.0 270:78.0 284:61.0 289:27.0 290:41.0 293:55.0 300:151.0 306:51.0 311:45.0 312:41.0 318:153.0 324:144.0 348:26.0 384:33.0 389:48.0 396:53.0 410:314.0 423:22.0 441:90.0 448:70.0 451:69.0 481:61.0 522:47.0 525:39.0 534:91.0 570:59.0 636:102.0 647:27.0 648:54.0 671:83.0 674:83.0 749:51.0 760:209.0 770:63.0 880:43.0 917:38.0 934:63.0 950:80.0 
-1.0 1.0 1:107.0 3:54.0 5:41.0 8:90.0 11:109.0 13:33.0 18:152.0 20:444.0 23:29.0 33:186.0 38:44.0 43:39.0 49:55.0 80:53.0 86:72.0 91:52.0 94:138.0 96:49.0 99:38.0 104:83.0 105:32.0 106:86.0 118:91.0 123:73.0 126:312.0 128:73.0 129:29.0 138:189.0 140:166.0 145:97.0 155:81.0 157:78.0 164:124.0 166:41.0 167:36.0 173:39.0 188:100.0 206:168.0 209:190.0 221:126.0 260:180.0 270:64.0 284:76.0 289:34.0 306:63.0 313:144.0 317:142.0 348:32.0 364:96.0 403:61.0 410:25.0 425:54.0 442:115.0 452:67.0 530:166.0 534:151.0 627:172.0 631:89.0 647:138.0 739:70.0 756:87.0 782:57.0 896:86.0 917:48.0 927:51.0 
-1.0 1.0 136:1135.0 
-1.0 1.0 3:485.0 4:149.0 26:663.0 32:520.0 102:175.0 246:650.0 435:481.0 568:284.0 
-1.0 1.0 1:51.0 13:47.0 86:52.0 106:124.0 135:88.0 140:48.0 148:88.0 206:60.0 209:34.0 264:77.0 270:46.0 311:162.0 404:861.0 448:62.0 477:213.0 519:80.0 521:118.0 534:109.0 580:135.0 632:76.0 644:100.0 654:1235.0 722:114.0 738:108.0 800:139.0 865:58.0 906:116.0 953:101.0 
-1.0 1.0 3:200.0 4:368.0 13:120.0 15:475.0 50:386.0 72:1083.0 91:381.0 164:112.0 197:297.0 224:268.0 226:268.0 243:628.0 270:354.0 283:1170.0 365:351.0 389:217.0 390:293.0 427:182.0 675:755.0 685:377.0 
-1.0 1.0 3:518.0 9:289.0 14:339.0 18:82.0 123:788.0 128:198.0 129:316.0 203:143.0 206:170.0 284:205.0 372:260.0 384:113.0 404:229.0 473:360.0 479:462.0 480:278.0 654:460.0 
-1.0 1.0 38:163.0 46:285.0 86:261.0 183:498.0 186:781.0 190:162.0 257:125.0 260:131.0 261:223.0 384:152.0 429:335.0 441:407.0 483:220.0 496:1089.0 544:214.0 758:220.0 760:376.0 770:285.0 
-1.0 1.0 14:82.0 39:39.0 46:204.0 50:34.0 54:39.0 67:79.0 126:158.0 157:51.0 158:47.0 173:25.0 174:97.0 189:34.0 190:87.0 215:112.0 273:57.0 278:114.0 327:58.0 337:112.0 348:42.0 368:125.0 410:33.0 418:59.0 423:17.0 425:35.0 429:30.0 444:57.0 476:105.0 480:33.0 484:65.0 486:65.0 490:65.0 493:130.0 498:65.0 500:65.0 501:65.0 502:65.0 506:65.0 507:260.0 508:65.0 509:65.0 514:65.0 515:65.0 568:94.0 570:48.0 585:61.0 604:44.0 626:35.0 637:43.0 648:44.0 652:56.0 658:560.0 672:67.0 673:67.0 688:67.0 692:67.0 703:67.0 713:67.0 714:67.0 716:67.0 729:45.0 749:41.0 775:59.0 805:125.0 807:62.0 808:65.0 809:62.0 906:315.0 907:46.0 915:55.0 939:58.0 972:70.0 
-1.0 1.0 2:25.0 4:16.0 5:26.0 16:25.0 18:19.0 23:19.0 43:25.0 74:27.0 75:87.0 96:32.0 99:25.0 104:18.0 105:63.0 106:28.0 158:47.0 173:25.0 201:43.0 207:48.0 209:46.0 217:37.0 270:42.0 289:112.0 314:80.0 334:33.0 337:56.0 348:42.0 384:27.0 393:108.0 410:135.0 423:17.0 425:70.0 485:130.0 487:65.0 530:54.0 560:46.0 568:63.0 581:61.0 605:48.0 644:45.0 655:101.0 682:67.0 711:65.0 715:326.0 732:37.0 736:50.0 749:41.0 792:63.0 906:52.0 911:239.0 922:67.0 973:75.0 988:71.0 
-1.0 1.0 5:23.0 6:24.0 16:22.0 22:23.0 35:46.0 38:25.0 67:35.0 74:24.0 86:62.0 90:26.0 99:44.0 102:34.0 119:65.0 130:74.0 132:40.0 135:35.0 166:23.0 205:23.0 207:21.0 221:144.0 243:297.0 246:31.0 257:39.0 289:39.0 293:39.0 305:41.0 387:91.0 388:46.0 389:34.0 396:38.0 410:104.0 413:52.0 423:15.0 444:50.0 448:49.0 480:59.0 483:34.0 519:32.0 567:49.0 568:55.0 570:42.0 608:40.0 628:117.0 629:40.0 647:19.0 655:59.0 724:47.0 744:34.0 749:36.0 792:166.0 861:45.0 863:39.0 867:38.0 880:30.0 897:43.0 927:29.0 
-0.4689717636794594 0.22063725664514766 17:1474.0 540:2389.0 
-1.0 1.0 1:1654.0 3:848.0 13:511.0 167:570.0 
-1.0 1.0 10:127.0 12:446.0 33:138.0 35:89.0 49:122.0 59:94.0 67:136.0 90:101.0 104:123.0 123:162.0 186:95.0 208:164.0 209:53.0 248:179.0 292:132.0 380:164.0 383:108.0 404:94.0 526:191.0 533:167.0 534:84.0 551:135.0 566:349.0 592:179.0 625:106.0 634:160.0 654:126.0 767:109.0 782:127.0 865:89.0 917:106.0 953:156.0 
-1.0 1.0 10:1108.0 40:668.0 51:1596.0 87:1349.0 184:759.0 391:804.0 
-1.0 1.0 74:325.0 102:229.0 106:665.0 129:226.0 138:291.0 243:444.0 286:597.0 291:470.0 314:476.0 881:428.0 
-1.0 1.0 12:869.0 20:274.0 71:473.0 97:332.0 102:257.0 129:254.0 423:235.0 
-1.0 1.0 1:765.0 2:280.0 3:392.0 4:361.0 8:322.0 18:217.0 42:497.0 86:256.0 129:209.0 146:626.0 167:263.0 261:438.0 270:231.0 
-1.0 1.0 1:497.0 3:382.0 4:352.0 17:683.0 885:727.0 
-1.0 1.0 10:849.0 16:285.0 51:203.0 87:517.0 137:165.0 212:280.0 324:664.0 575:268.0 588:697.0 955:574.0 
-1.0 1.0 5:187.0 18:138.0 20:215.0 25:300.0 28:85.0 37:287.0 43:178.0 89:188.0 91:237.0 102:67.0 106:292.0 109:169.0 120:171.0 126:471.0 128:83.0 152:162.0 164:140.0 216:195.0 270:147.0 284:173.0 288:140.0 312:116.0 397:157.0 431:177.0 534:171.0 542:185.0 565:191.0 641:165.0 664:470.0 782:130.0 867:151.0 
-1.0 1.0 1:88.0 2:97.0 4:31.0 5:51.0 8:56.0 18:75.0 28:94.0 38:111.0 72:74.0 113:101.0 164:77.0 188:41.0 206:52.0 209:207.0 218:66.0 261:152.0 289:85.0 348:40.0 400:92.0 404:211.0 410:96.0 475:94.0 521:101.0 568:120.0 608:88.0 632:131.0 645:65.0 655:64.0 748:68.0 789:53.0 868:85.0 953:175.0 
-1.0 1.0 2:228.0 5:239.0 9:207.0 35:156.0 54:118.0 59:165.0 86:69.0 112:94.0 247:134.0 372:187.0 410:50.0 429:89.0 448:84.0 655:99.0 674:200.0 880:103.0 
-1.0 1.0 1:104.0 2:269.0 3:161.0 4:198.0 8:44.0 9:52.0 18:89.0 28:74.0 32:43.0 33:60.0 35:39.0 36:62.0 40:67.0 43:38.0 46:230.0 48:40.0 74:371.0 90:44.0 92:75.0 105:31.0 129:115.0 145:47.0 164:60.0 166:122.0 174:146.0 195:68.0 206:61.0 246:54.0 260:35.0 284:112.0 314:60.0 372:94.0 379:66.0 404:41.0 410:25.0 427:49.0 428:85.0 483:118.0 523:80.0 525:48.0 636:124.0 708:426.0 727:78.0 760:456.0 783:89.0 876:85.0 884:84.0 908:71.0 
-1.0 1.0 1:68.0 2:50.0 3:17.0 4:48.0 5:105.0 8:144.0 9:34.0 18:97.0 20:40.0 23:38.0 28:96.0 33:39.0 35:25.0 36:81.0 38:28.0 39:38.0 43:50.0 46:351.0 54:39.0 59:27.0 67:39.0 70:36.0 74:270.0 86:138.0 98:38.0 100:75.0 104:17.0 128:47.0 138:169.0 140:21.0 166:26.0 167:23.0 172:98.0 173:25.0 182:287.0 186:137.0 197:104.0 205:77.0 206:94.0 207:23.0 209:15.0 218:34.0 256:38.0 260:208.0 271:34.0 284:49.0 286:49.0 348:21.0 372:61.0 380:47.0 384:458.0 396:42.0 404:54.0 410:83.0 421:36.0 429:59.0 430:26.0 441:35.0 451:110.0 496:128.0 525:63.0 589:61.0 631:28.0 647:44.0 655:33.0 732:36.0 760:66.0 768:46.0 779:58.0 868:43.0 905:46.0 917:61.0 
-1.0 1.0 13:325.0 15:1153.0 24:445.0 37:124.0 48:80.0 68:741.0 81:1266.0 89:326.0 106:84.0 132:966.0 142:642.0 170:150.0 206:82.0 221:123.0 232:179.0 236:359.0 302:368.0 395:79.0 423:321.0 445:172.0 448:85.0 532:165.0 534:148.0 632:206.0 655:101.0 665:203.0 
-1.0 1.0 13:540.0 15:355.0 24:822.0 81:1949.0 89:452.0 129:479.0 226:402.0 232:498.0 234:498.0 236:996.0 243:313.0 283:350.0 302:511.0 423:148.0 632:286.0 
-1.0 1.0 5:673.0 397:2274.0 
-1.0 1.0 12:337.0 13:222.0 59:286.0 102:200.0 129:197.0 209:160.0 729:472.0 883:507.0 
-1.0 1.0 1:41.0 2:135.0 3:31.0 4:175.0 5:47.0 6:193.0 11:41.0 13:38.0 18:35.0 30:61.0 32:101.0 35:232.0 43:90.0 69:87.0 86:41.0 90:104.0 91:181.0 102:68.0 103:176.0 119:43.0 145:56.0 166:143.0 173:45.0 186:98.0 195:80.0 206:72.0 207:42.0 214:99.0 223:57.0 243:66.0 246:63.0 257:198.0 270:37.0 288:71.0 312:118.0 318:73.0 334:58.0 336:105.0 384:48.0 410:29.0 423:62.0 568:55.0 608:163.0 655:178.0 662:185.0 707:119.0 865:139.0 876:101.0 940:105.0 974:111.0 
-1.0 1.0 63:1759.0 87:847.0 106:1047.0 346:908.0 396:805.0 404:517.0 
-1.0 1.0 5:46.0 8:101.0 28:42.0 33:69.0 42:78.0 43:44.0 102:200.0 109:168.0 141:841.0 170:171.0 173:89.0 185:65.0 207:125.0 223:56.0 238:103.0 257:38.0 384:94.0 423:61.0 453:48.0 470:241.0 510:108.0 528:93.0 530:93.0 636:214.0 655:115.0 809:108.0 867:75.0 
-1.0 1.0 1:107.0 2:141.0 3:99.0 5:74.0 12:60.0 13:179.0 14:37.0 18:36.0 23:35.0 28:22.0 33:37.0 36:76.0 38:27.0 39:36.0 43:23.0 54:73.0 68:45.0 73:398.0 85:45.0 86:108.0 112:29.0 125:52.0 136:32.0 140:20.0 164:37.0 197:49.0 206:12.0 209:14.0 257:41.0 260:86.0 264:32.0 269:47.0 270:19.0 284:45.0 296:48.0 313:43.0 314:74.0 327:53.0 330:51.0 375:60.0 380:44.0 397:83.0 400:44.0 404:25.0 412:55.0 417:55.0 427:30.0 430:24.0 443:52.0 483:36.0 534:22.0 561:232.0 571:51.0 592:48.0 627:34.0 647:41.0 654:34.0 689:124.0 749:38.0 782:34.0 794:58.0 795:58.0 919:36.0 942:73.0 971:65.0 975:65.0 978:65.0 
-1.0 1.0 3:77.0 109:2535.0 207:209.0 284:108.0 373:282.0 380:209.0 543:293.0 647:97.0 891:135.0 
-0.49742415696346903 0.22063725664514766 97:731.0 730:1191.0 761:1293.0 
-1.0 1.0 12:434.0 17:212.0 20:137.0 28:327.0 34:262.0 59:184.0 66:433.0 104:119.0 112:212.0 129:127.0 139:286.0 154:307.0 156:339.0 198:293.0 206:273.0 209:103.0 292:257.0 309:307.0 329:171.0 347:182.0 379:293.0 423:117.0 430:175.0 473:193.0 562:182.0 566:226.0 656:372.0 772:257.0 865:174.0 
-1.0 1.0 1:971.0 2:2137.0 3:1495.0 4:688.0 423:741.0 
-1.0 1.0 395:537.0 626:1467.0 
-1.0 1.0 158:2584.0 
-1.0 1.0 15:1734.0 190:1779.0 404:565.0 488:2652.0 654:756.0 775:2434.0 
-1.0 1.0 4:328.0 63:1879.0 74:1094.0 129:381.0 174:970.0 203:1386.0 372:1254.0 636:823.0 
-1.0 1.0 4:263.0 15:678.0 20:329.0 47:511.0 48:424.0 132:730.0 172:794.0 216:1787.0 366:1003.0 425:562.0 570:767.0 
-1.0 1.0 4:203.0 13:177.0 15:1400.0 18:81.0 24:202.0 39:161.0 81:1153.0 89:445.0 129:236.0 136:143.0 224:198.0 243:771.0 256:319.0 386:213.0 423:146.0 665:278.0 862:205.0 881:2083.0 941:245.0 
-1.0 1.0 1:879.0 3:406.0 4:124.0 23:147.0 31:209.0 60:258.0 104:136.0 138:186.0 257:169.0 293:340.0 384:206.0 410:127.0 437:409.0 748:269.0 750:264.0 
-1.0 1.0 2:1176.0 3:63.0 4:350.0 18:70.0 25:305.0 72:137.0 96:113.0 103:176.0 106:99.0 128:84.0 164:71.0 167:85.0 173:91.0 205:92.0 206:97.0 209:54.0 222:141.0 257:79.0 261:141.0 329:91.0 334:117.0 395:93.0 400:172.0 410:59.0 430:93.0 444:202.0 495:238.0 562:291.0 581:216.0 603:134.0 632:242.0 732:132.0 777:649.0 867:153.0 881:127.0 
-1.0 1.0 1:658.0 3:253.0 4:116.0 5:570.0 12:462.0 18:140.0 32:611.0 37:292.0 48:188.0 123:673.0 205:184.0 237:366.0 246:254.0 260:498.0 284:176.0 533:696.0 781:844.0 
-1.0 1.0 17:78.0 20:50.0 27:107.0 28:120.0 34:96.0 59:339.0 66:159.0 94:109.0 98:96.0 104:88.0 107:116.0 108:116.0 112:78.0 119:240.0 126:165.0 129:93.0 133:114.0 138:300.0 140:53.0 148:97.0 153:112.0 164:49.0 173:63.0 192:115.0 198:108.0 205:63.0 206:134.0 209:37.0 223:79.0 271:85.0 274:124.0 309:112.0 329:63.0 347:67.0 410:206.0 423:43.0 430:64.0 439:108.0 473:71.0 545:100.0 625:75.0 728:106.0 737:86.0 767:234.0 772:94.0 865:64.0 880:85.0 890:99.0 917:76.0 
-1.0 1.0 2:180.0 3:126.0 5:190.0 18:280.0 31:196.0 43:180.0 86:165.0 103:352.0 146:1212.0 164:285.0 214:396.0 218:489.0 257:158.0 284:176.0 307:597.0 778:422.0 917:221.0 
-1.0 1.0 17:77.0 20:50.0 27:106.0 28:119.0 34:95.0 59:337.0 66:158.0 94:109.0 98:95.0 104:87.0 107:115.0 108:115.0 112:77.0 119:238.0 126:164.0 129:92.0 133:113.0 138:299.0 140:52.0 148:97.0 153:112.0 164:49.0 173:62.0 192:114.0 198:107.0 205:63.0 206:133.0 208:116.0 209:37.0 271:84.0 274:124.0 309:112.0 329:62.0 347:66.0 410:205.0 423:43.0 430:64.0 439:107.0 473:70.0 545:100.0 625:75.0 659:136.0 728:105.0 737:85.0 767:232.0 772:94.0 865:63.0 880:84.0 890:99.0 917:76.0 
-1.0 1.0 1:404.0 2:444.0 3:310.0 18:172.0 28:213.0 31:240.0 86:203.0 103:432.0 118:258.0 146:496.0 164:175.0 167:208.0 218:300.0 260:408.0 269:443.0 288:349.0 410:293.0 631:252.0 872:506.0 
-1.0 1.0 2:1145.0 3:160.0 4:442.0 13:193.0 76:386.0 129:171.0 139:386.0 167:430.0 189:309.0 581:547.0 647:403.0 675:604.0 976:1268.0 
-1.0 1.0 1:887.0 3:341.0 32:549.0 36:787.0 167:458.0 533:938.0 
-1.0 1.0 4:76.0 13:996.0 15:392.0 50:2077.0 209:143.0 226:222.0 256:179.0 329:238.0 423:655.0 637:398.0 744:181.0 881:166.0 
-1.0 1.0 48:309.0 50:201.0 102:112.0 126:918.0 216:976.0 410:490.0 516:259.0 557:325.0 641:553.0 645:199.0 648:256.0 915:319.0 954:268.0 
-1.0 1.0 5:36.0 9:47.0 12:44.0 18:27.0 20:169.0 28:33.0 32:39.0 43:70.0 50:47.0 55:48.0 95:130.0 129:52.0 136:95.0 166:147.0 167:131.0 193:70.0 206:169.0 209:21.0 226:65.0 228:65.0 267:68.0 269:279.0 286:68.0 312:137.0 313:193.0 366:86.0 374:430.0 391:74.0 395:36.0 411:81.0 423:24.0 429:41.0 443:78.0 448:116.0 480:276.0 483:54.0 522:51.0 534:304.0 587:79.0 636:56.0 655:45.0 676:1109.0 721:1379.0 749:56.0 761:60.0 765:78.0 777:83.0 789:76.0 865:36.0 868:61.0 893:71.0 939:79.0 
-1.0 1.0 10:2109.0 257:634.0 308:1485.0 432:1361.0 
-1.0 1.0 9:851.0 13:262.0 675:823.0 976:863.0 
-1.0 1.0 1:104.0 2:137.0 3:96.0 5:72.0 12:58.0 13:173.0 14:36.0 18:35.0 23:34.0 28:22.0 33:36.0 36:73.0 38:26.0 39:35.0 43:22.0 54:71.0 68:44.0 73:386.0 85:44.0 86:104.0 112:28.0 125:102.0 132:40.0 136:31.0 140:19.0 164:36.0 197:47.0 206:12.0 209:13.0 257:40.0 260:84.0 264:31.0 269:45.0 270:18.0 284:44.0 296:46.0 313:42.0 314:72.0 327:104.0 330:50.0 375:58.0 380:43.0 397:81.0 400:43.0 404:24.0 412:53.0 417:53.0 427:29.0 430:23.0 443:51.0 483:35.0 534:22.0 561:225.0 571:50.0 592:46.0 627:33.0 647:40.0 654:33.0 689:181.0 749:36.0 782:33.0 794:56.0 795:56.0 919:35.0 942:71.0 971:63.0 975:63.0 978:63.0 
-1.0 1.0 1:68.0 2:18.0 3:26.0 4:24.0 8:21.0 13:94.0 18:29.0 23:14.0 29:68.0 31:20.0 32:21.0 33:29.0 38:21.0 43:37.0 50:25.0 68:36.0 71:26.0 85:72.0 86:17.0 101:32.0 104:13.0 109:249.0 128:52.0 136:25.0 140:158.0 145:23.0 164:14.0 167:17.0 179:213.0 188:48.0 205:19.0 206:10.0 207:35.0 209:56.0 228:35.0 260:17.0 264:25.0 269:74.0 270:30.0 284:54.0 289:114.0 290:24.0 311:26.0 313:34.0 314:29.0 348:31.0 397:33.0 404:20.0 416:43.0 423:38.0 427:23.0 437:39.0 483:28.0 533:72.0 534:18.0 544:28.0 568:69.0 627:54.0 647:49.0 654:27.0 655:49.0 689:49.0 762:41.0 767:23.0 789:122.0 862:36.0 875:36.0 914:40.0 923:40.0 934:74.0 942:29.0 
-1.0 1.0 212:431.0 246:315.0 789:243.0 
-1.0 1.0 1:221.0 2:304.0 3:595.0 4:235.0 13:256.0 18:94.0 28:58.0 31:65.0 32:136.0 35:62.0 59:66.0 74:130.0 104:42.0 105:49.0 119:58.0 123:113.0 140:103.0 172:118.0 173:123.0 188:52.0 206:130.0 209:36.0 218:82.0 256:368.0 285:88.0 289:53.0 292:276.0 348:50.0 421:88.0 562:65.0 647:53.0 729:435.0 917:148.0 
-1.0 1.0 1:453.0 3:174.0 11:231.0 32:280.0 48:259.0 102:188.0 104:351.0 105:408.0 119:239.0 138:239.0 189:337.0 306:402.0 566:332.0 647:439.0 750:340.0 
-1.0 1.0 12:434.0 17:212.0 20:137.0 27:291.0 28:327.0 34:262.0 59:184.0 66:433.0 104:119.0 139:286.0 154:307.0 156:339.0 195:304.0 198:293.0 206:91.0 209:103.0 292:257.0 306:274.0 309:307.0 329:171.0 347:182.0 379:293.0 423:117.0 430:175.0 562:182.0 566:226.0 656:372.0 772:257.0 865:174.0 875:327.0 
-1.0 1.0 16:917.0 
-0.6875 1.0 17:1474.0 540:2389.0 
-1.0 1.0 1:377.0 
-1.0 1.0 1:551.0 3:212.0 9:828.0 36:489.0 89:641.0 126:267.0 150:800.0 173:306.0 232:707.0 265:553.0 302:725.0 567:664.0 983:839.0 
-1.0 1.0 18:51.0 35:67.0 51:184.0 55:91.0 85:128.0 129:49.0 137:1121.0 167:62.0 257:57.0 423:45.0 604:456.0 803:162.0 927:86.0 
-1.0 1.0 17:383.0 28:591.0 34:474.0 66:391.0 198:531.0 206:329.0 208:578.0 209:186.0 274:613.0 306:496.0 347:330.0 423:213.0 430:318.0 473:349.0 642:412.0 659:673.0 865:316.0 
-1.0 1.0 1:52.0 2:28.0 3:40.0 4:37.0 8:131.0 9:78.0 13:24.0 14:46.0 20:23.0 28:55.0 29:52.0 35:29.0 38:98.0 43:57.0 47:72.0 54:44.0 59:31.0 72:87.0 75:97.0 86:26.0 95:53.0 113:239.0 136:39.0 144:106.0 164:68.0 166:30.0 188:49.0 199:96.0 203:39.0 205:29.0 206:107.0 209:157.0 221:46.0 228:54.0 230:60.0 257:25.0 260:52.0 270:23.0 284:223.0 289:25.0 293:50.0 329:57.0 381:309.0 384:30.0 416:67.0 419:67.0 429:33.0 448:127.0 489:73.0 492:146.0 522:85.0 534:138.0 548:54.0 562:215.0 580:68.0 583:68.0 587:65.0 590:206.0 647:151.0 653:58.0 676:151.0 683:227.0 701:75.0 721:113.0 736:56.0 749:46.0 751:142.0 760:37.0 762:64.0 865:29.0 873:60.0 942:133.0 979:79.0 
-1.0 1.0 1:658.0 2:723.0 3:1013.0 72:1097.0 
-1.0 1.0 12:160.0 17:78.0 20:50.0 27:107.0 28:121.0 34:97.0 59:341.0 66:160.0 94:110.0 98:97.0 104:88.0 107:117.0 108:117.0 112:78.0 119:241.0 126:166.0 129:94.0 133:114.0 138:302.0 140:53.0 148:98.0 153:113.0 154:113.0 156:125.0 164:49.0 173:63.0 192:115.0 205:64.0 206:101.0 209:38.0 271:85.0 308:128.0 329:63.0 347:67.0 410:207.0 423:43.0 430:65.0 439:108.0 473:71.0 545:101.0 625:76.0 642:84.0 728:106.0 737:86.0 767:235.0 772:95.0 865:64.0 880:85.0 890:100.0 917:76.0 
-1.0 1.0 2:192.0 3:224.0 4:454.0 14:102.0 18:99.0 39:98.0 104:226.0 112:320.0 129:191.0 145:79.0 172:249.0 174:121.0 206:68.0 246:90.0 260:412.0 278:143.0 307:211.0 510:157.0 522:474.0 631:145.0 682:338.0 760:253.0 892:128.0 914:137.0 
-1.0 1.0 1:216.0 2:357.0 3:124.0 4:345.0 5:125.0 18:46.0 38:136.0 43:59.0 54:93.0 72:451.0 85:115.0 86:54.0 97:58.0 103:115.0 112:74.0 129:44.0 136:81.0 146:132.0 164:47.0 166:62.0 167:55.0 208:111.0 222:186.0 223:75.0 231:322.0 257:156.0 284:57.0 314:93.0 387:120.0 410:117.0 429:69.0 551:92.0 592:122.0 707:314.0 720:164.0 725:189.0 767:148.0 903:90.0 913:132.0 917:72.0 
-0.6802610349142515 0.6992972973098653 3:105.0 4:97.0 10:219.0 17:188.0 20:121.0 32:169.0 48:156.0 59:327.0 62:283.0 66:191.0 99:148.0 167:141.0 206:80.0 209:91.0 223:191.0 347:162.0 427:192.0 479:438.0 885:200.0 
